{"learner":{"attributes":{"scikit_learn":"{\"_estimator_type\": \"classifier\"}"},"feature_names":[],"feature_types":[],"gradient_booster":{"model":{"cats":{"enc":[],"feature_segments":[],"sorted_idx":[]},"gbtree_model_param":{"num_parallel_tree":"1","num_trees":"150"},"iteration_indptr":[0,1,2,3,4,5,6,7,8,9,10,11,12,13,14,15,16,17,18,19,20,21,22,23,24,25,26,27,28,29,30,31,32,33,34,35,36,37,38,39,40,41,42,43,44,45,46,47,48,49,50,51,52,53,54,55,56,57,58,59,60,61,62,63,64,65,66,67,68,69,70,71,72,73,74,75,76,77,78,79,80,81,82,83,84,85,86,87,88,89,90,91,92,93,94,95,96,97,98,99,100,101,102,103,104,105,106,107,108,109,110,111,112,113,114,115,116,117,118,119,120,121,122,123,124,125,126,127,128,129,130,131,132,133,134,135,136,137,138,139,140,141,142,143,144,145,146,147,148,149,150],"tree_info":[0,0,0,0,0,0,0,0,0,0,0,0,0,0,0,0,0,0,0,0,0,0,0,0,0,0,0,0,0,0,0,0,0,0,0,0,0,0,0,0,0,0,0,0,0,0,0,0,0,0,0,0,0,0,0,0,0,0,0,0,0,0,0,0,0,0,0,0,0,0,0,0,0,0,0,0,0,0,0,0,0,0,0,0,0,0,0,0,0,0,0,0,0,0,0,0,0,0,0,0,0,0,0,0,0,0,0,0,0,0,0,0,0,0,0,0,0,0,0,0,0,0,0,0,0,0,0,0,0,0,0,0,0,0,0,0,0,0,0,0,0,0,0,0,0,0,0,0,0,0],"trees":[{"base_weights":[-5.7452805E-8,1.579143E-1,-1.7197177E0,3.555802E-1,-1.4194069E0,-2.1861966E0,1.3946167E-1,4.6000448E-1,-2.4602365E-1,1.4310794E0,-2.2027395E0,-2.379558E0,1.1030467E-1,5.6157905E-1,-2.3883913E-1,1.492664E-1,4.2004608E-2,-4.3267906E-1,-2.4970129E0,-2.4957135E-1,8.78361E-2,6.813991E-2,-1.847098E-1,-2.0035098E-1,1.073337E-1,-4.965838E-2,-2.543703E-1],"categories":[],"categories_nodes":[],"categories_segments":[],"categories_sizes":[],"default_left":[0,0,0,0,0,0,0,0,0,0,0,0,0,0,0,0,0,0,0,0,0,0,0,0,0,0,0],"id":0,"left_children":[1,3,5,7,9,11,-1,13,-1,15,17,19,-1,21,-1,-1,-1,23,25,-1,-1,-1,-1,-1,-1,-1,-1],"loss_changes":[1.6198999E2,1.7084132E2,7.593048E1,1.441204E2,1.3944905E2,3.0622955E1,0E0,1.3724973E2,0E0,2.3005295E-1,2.4065811E1,1.8045792E1,0E0,1.3239598E2,0E0,0E0,0E0,2.1292318E1,2.583496E0,0E0,0E0,0E0,0E0,0E0,0E0,0E0,0E0],"parents":[2147483647,0,0,1,1,2,2,3,3,4,4,5,5,7,7,9,9,10,10,11,11,13,13,17,17,18,18],"right_children":[2,4,6,8,10,12,-1,14,-1,16,18,20,-1,22,-1,-1,-1,24,26,-1,-1,-1,-1,-1,-1,-1,-1],"split_conditions":[7E0,1E0,2.49E2,5.3E1,1E0,1E0,1.3946167E-1,1.95E2,-2.4602365E-1,2.55E2,2E0,2.05E2,1.1030467E-1,2.39E2,-2.3883913E-1,1.492664E-1,4.2004608E-2,5E0,7.5E1,-2.4957135E-1,8.78361E-2,6.813991E-2,-1.847098E-1,-2.0035098E-1,1.073337E-1,-4.965838E-2,-2.543703E-1],"split_indices":[11898,12111,11907,10575,11511,9981,0,10563,0,1464,4851,9843,0,10566,0,0,0,5520,7785,0,0,0,0,0,0,0,0],"split_type":[0,0,0,0,0,0,0,0,0,0,0,0,0,0,0,0,0,0,0,0,0,0,0,0,0,0,0],"sum_hessian":[5.944986E2,5.4533136E2,4.9167282E1,4.8529053E2,6.0040813E1,4.302137E1,6.1459103E0,4.6874384E2,1.654668E1,1.2764583E1,4.727623E1,4.089394E1,2.1274304E0,4.5337906E2,1.5364776E1,1.1582677E1,1.1819057E0,7.091435E0,4.0184795E1,3.9712036E1,1.1819057E0,4.325775E2,2.0801542E1,3.3093362E0,3.7820985E0,1.1819057E0,3.900289E1],"tree_param":{"num_deleted":"0","num_feature":"12292","num_nodes":"27","size_leaf_vector":"1"}},{"base_weights":[5.8196316E-4,1.431219E-1,-1.4975821E0,3.232526E-1,-1.2490304E0,-1.8913658E0,1.3180608E-1,4.1936585E-1,-2.1344398E-1,1.3500276E0,-1.9145254E0,-2.0547748E0,1.0491588E-1,5.1218086E-1,-2.1786363E-1,1.4137107E-1,3.5855055E-2,-3.974977E-1,-2.156543E0,-2.1534078E0,8.413502E-2,7.5444125E-2,-6.0932744E-2,-1.7943661E-1,1.0114723E-1,-2.1985696E-1,-3.943465E-2,-9.332041E-2,-2.1975727E-1],"categories":[],"categories_nodes":[],"categories_segments":[],"categories_sizes":[],"default_left":[0,0,0,0,0,0,0,0,0,0,0,0,0,0,0,0,0,0,0,0,0,0,0,0,0,0,0,0,0],"id":1,"left_children":[1,3,5,7,9,11,-1,13,-1,15,17,19,-1,21,-1,-1,-1,23,25,27,-1,-1,-1,-1,-1,-1,-1,-1,-1],"loss_changes":[1.26868546E2,1.3644125E2,5.9719803E1,1.145449E2,1.1043868E2,2.4110947E1,0E0,1.12966515E2,0E0,3.3275032E-1,1.7521301E1,1.4273148E1,0E0,1.22360176E2,0E0,0E0,0E0,1.7782785E1,2.3134308E0,2.3783875E-1,0E0,0E0,0E0,0E0,0E0,0E0,0E0,0E0,0E0],"parents":[2147483647,0,0,1,1,2,2,3,3,4,4,5,5,7,7,9,9,10,10,11,11,13,13,17,17,18,18,19,19],"right_children":[2,4,6,8,10,12,-1,14,-1,16,18,20,-1,22,-1,-1,-1,24,26,28,-1,-1,-1,-1,-1,-1,-1,-1,-1],"split_conditions":[7E0,1E0,2.49E2,5.3E1,1E0,1E0,1.3180608E-1,1.2E1,-2.1344398E-1,1E0,2E0,2.05E2,1.0491588E-1,3E0,-2.1786363E-1,1.4137107E-1,3.5855055E-2,5E0,2.03E2,9E1,8.413502E-2,7.5444125E-2,-6.0932744E-2,-1.7943661E-1,1.0114723E-1,-2.1985696E-1,-3.943465E-2,-9.332041E-2,-2.1975727E-1],"split_indices":[11898,12111,11907,10575,11511,9981,0,10932,0,1665,4851,9843,0,3996,0,0,0,5520,8607,5649,0,0,0,0,0,0,0,0,0],"split_type":[0,0,0,0,0,0,0,0,0,0,0,0,0,0,0,0,0,0,0,0,0,0,0,0,0,0,0,0,0],"sum_hessian":[5.9209424E2,5.414805E2,5.061366E1,4.8012494E2,6.1355606E1,4.4691555E1,5.922105E0,4.6285345E2,1.7271496E1,1.2297954E1,4.905765E1,4.2624096E1,2.0674574E0,4.476633E2,1.5190156E1,1.1155562E1,1.1423912E0,7.1131372E0,4.1944515E1,4.146827E1,1.1558275E0,3.684094E2,7.925391E1,3.4345534E0,3.678584E0,4.072562E1,1.2188944E0,2.2215145E0,3.9246754E1],"tree_param":{"num_deleted":"0","num_feature":"12292","num_nodes":"29","size_leaf_vector":"1"}},{"base_weights":[5.85193E-4,-1.4231776E-1,1.4209219E0,-3.330618E-2,-2.1225451E-1,1.5316227E-1,-1.6108362E-1,2.111112E-1,-1.0053097E0,4.1986072E-1,-8.991218E-1,-1.250334E0,1.4508988E-1,5.3540815E-2,-2.1606128E-1,-1.5175315E-2,-1.8079957E-1,-1.4264101E-1,1.3610648E-1],"categories":[],"categories_nodes":[],"categories_segments":[],"categories_sizes":[],"default_left":[0,0,0,0,0,0,0,0,0,0,0,0,0,0,0,0,0,0,0],"id":2,"left_children":[1,3,5,7,-1,-1,-1,9,11,13,15,17,-1,-1,-1,-1,-1,-1,-1],"loss_changes":[1.19409515E2,1.15317894E2,2.0516785E1,1.20819115E2,0E0,0E0,0E0,9.458374E1,6.330815E1,1.03377594E2,4.36402E1,4.49088E1,0E0,0E0,0E0,0E0,0E0,0E0,0E0],"parents":[2147483647,0,0,1,1,2,2,3,3,7,7,8,8,9,9,10,10,11,11],"right_children":[2,4,6,8,-1,-1,-1,10,12,14,16,18,-1,-1,-1,-1,-1,-1,-1],"split_conditions":[2E0,2.39E2,2.47E2,3E0,-2.1225451E-1,1.5316227E-1,-1.6108362E-1,3E0,4E0,1.37E2,2E0,1.5E2,1.4508988E-1,5.3540815E-2,-2.1606128E-1,-1.5175315E-2,-1.8079957E-1,-1.4264101E-1,1.3610648E-1],"split_indices":[11874,10566,9603,3996,0,0,0,11511,11523,11550,11334,10938,0,0,0,0,0,0,0],"split_type":[0,0,0,0,0,0,0,0,0,0,0,0,0,0,0,0,0,0,0],"sum_hessian":[5.8631396E2,5.335339E2,5.2780125E1,5.0665906E2,2.6874783E1,5.139819E1,1.3819323E0,4.0548077E2,1.0117828E2,3.4183054E2,6.3650234E1,9.244699E1,8.731296E0,3.2793875E2,1.3891798E1,3.5568863E1,2.8081373E1,8.703252E1,5.414475E0],"tree_param":{"num_deleted":"0","num_feature":"12292","num_nodes":"19","size_leaf_vector":"1"}},{"base_weights":[7.699203E-4,-1.2880066E-1,1.3415475E0,-2.9861517E-2,-1.9041234E-1,1.4523713E-1,-1.4814393E-1,1.9642273E-1,-9.8493606E-1,3.9585638E-1,-7.854151E-1,-1.2780797E0,1.2584219E0,5.024634E-2,-1.9288778E-1,-5.800916E-3,-1.6404344E-1,-1.8181384E-1,-3.1236587E-2,1.6718965E-3,1.3925178E-1],"categories":[],"categories_nodes":[],"categories_segments":[],"categories_sizes":[],"default_left":[0,0,0,0,0,0,0,0,0,0,0,0,0,0,0,0,0,0,0,0,0],"id":3,"left_children":[1,3,5,7,-1,-1,-1,9,11,13,15,17,19,-1,-1,-1,-1,-1,-1,-1,-1],"loss_changes":[1.0132781E2,9.336574E1,1.8231842E1,1.09292274E2,0E0,0E0,0E0,8.038802E1,6.530643E1,8.537416E1,4.305421E1,4.436946E1,1.9245319E0,0E0,0E0,0E0,0E0,0E0,0E0,0E0,0E0],"parents":[2147483647,0,0,1,1,2,2,3,3,7,7,8,8,9,9,10,10,11,11,12,12],"right_children":[2,4,6,8,-1,-1,-1,10,12,14,16,18,20,-1,-1,-1,-1,-1,-1,-1,-1],"split_conditions":[2E0,2.39E2,2.47E2,2.6E1,-1.9041234E-1,1.4523713E-1,-1.4814393E-1,3E0,3E0,1.87E2,2E0,1.9E2,8.4E1,5.024634E-2,-1.9288778E-1,-5.800916E-3,-1.6404344E-1,-1.8181384E-1,-3.1236587E-2,1.6718965E-3,1.3925178E-1],"split_indices":[11874,10566,9603,5922,0,0,0,11511,11523,11745,11334,10638,5730,0,0,0,0,0,0,0,0],"split_type":[0,0,0,0,0,0,0,0,0,0,0,0,0,0,0,0,0,0,0,0,0],"sum_hessian":[5.8126984E2,5.308712E2,5.03986E1,5.0381058E2,2.7060656E1,4.896199E1,1.4366102E0,4.0794998E2,9.586059E1,3.39572E2,6.837799E1,8.516252E1,1.0698061E1,3.2543228E2,1.4139722E1,3.752312E1,3.0854872E1,5.4052124E1,3.11104E1,1.1523349E0,9.545726E0],"tree_param":{"num_deleted":"0","num_feature":"12292","num_nodes":"21","size_leaf_vector":"1"}},{"base_weights":[3.9579766E-4,1.2960923E-1,-1.3206385E0,2.7553567E-1,-9.784714E-1,-1.6555694E0,1.22649625E-1,3.612921E-1,-1.9982508E-1,1.2492373E0,-1.5163903E0,-1.7922208E0,9.561447E-2,4.4695365E-1,-1.7015061E-1,1.319178E-1,2.5393948E-2,-2.2659877E-2,-1.7109023E0,-1.8818799E0,8.2965374E-2,5.4143943E-2,-1.292891E-1,-1.3332039E-1,1.0393733E-1,-1.7721578E-1,2.2858141E-2,-5.8003336E-2,-1.9063945E-1],"categories":[],"categories_nodes":[],"categories_segments":[],"categories_sizes":[],"default_left":[0,0,0,0,0,0,0,0,0,0,0,0,0,0,0,0,0,0,0,0,0,0,0,0,0,0,0,0,0],"id":4,"left_children":[1,3,5,7,9,11,-1,13,-1,15,17,19,-1,21,-1,-1,-1,23,25,27,-1,-1,-1,-1,-1,-1,-1,-1,-1],"loss_changes":[9.8352585E1,8.5136635E1,4.5826805E1,9.130592E1,7.5346146E1,1.8058136E1,0E0,8.001438E1,0E0,5.330925E-1,1.4437798E1,1.1873413E1,0E0,7.162219E1,0E0,0E0,0E0,1.0786251E1,5.6408844E0,2.5769043E-1,0E0,0E0,0E0,0E0,0E0,0E0,0E0,0E0,0E0],"parents":[2147483647,0,0,1,1,2,2,3,3,4,4,5,5,7,7,9,9,10,10,11,11,13,13,17,17,18,18,19,19],"right_children":[2,4,6,8,10,12,-1,14,-1,16,18,20,-1,22,-1,-1,-1,24,26,28,-1,-1,-1,-1,-1,-1,-1,-1,-1],"split_conditions":[7E0,1E0,2.49E2,1.95E2,1E0,1E0,1.22649625E-1,5.3E1,-1.9982508E-1,2.55E2,2E0,2.05E2,9.561447E-2,2.39E2,-1.7015061E-1,1.319178E-1,2.5393948E-2,5E0,2E0,3.1E1,8.2965374E-2,5.4143943E-2,-1.292891E-1,-1.3332039E-1,1.0393733E-1,-1.7721578E-1,2.2858141E-2,-5.8003336E-2,-1.9063945E-1],"split_indices":[11898,12111,11907,10563,11511,9981,0,10575,0,2778,5235,9843,0,10566,0,0,0,5520,10701,6405,0,0,0,0,0,0,0,0,0],"split_type":[0,0,0,0,0,0,0,0,0,0,0,0,0,0,0,0,0,0,0,0,0,0,0,0,0,0,0,0,0],"sum_hessian":[5.7418506E2,5.2384814E2,5.033691E1,4.6355283E2,6.0295315E1,4.47965E1,5.5404096E0,4.4751575E2,1.6037062E1,1.1470334E1,4.882498E1,4.286735E1,1.92915E0,4.3042487E2,1.7090878E1,1.04131775E1,1.0571561E0,5.754041E0,4.3070942E1,4.1722813E1,1.1445377E0,4.0890717E2,2.1517725E1,2.461379E0,3.2926621E0,4.1835896E1,1.2350463E0,1.2269382E0,4.0495872E1],"tree_param":{"num_deleted":"0","num_feature":"12292","num_nodes":"29","size_leaf_vector":"1"}},{"base_weights":[-2.0188751E-4,-1.1656447E-1,1.2589102E0,-2.647116E-1,9.526701E-1,1.373351E-1,-1.4113072E-1,-1.5058818E-1,-1.8185624E0,1.443851E-1,-1.182425E0,-3.6928423E-2,-1.972109E-1,-1.8510742E-1,-5.1533997E-2,1.0231469E-1,-1.836829E-1,1.3096623E-2,-1.20817564E-1],"categories":[],"categories_nodes":[],"categories_segments":[],"categories_sizes":[],"default_left":[0,0,0,0,0,0,0,0,0,0,0,0,0,0,0,0,0,0,0],"id":5,"left_children":[1,3,5,7,9,-1,-1,11,13,-1,15,17,-1,-1,-1,-1,-1,-1,-1],"loss_changes":[8.293294E1,8.233005E1,1.6571365E1,8.056799E1,6.806322E1,0E0,0E0,8.807804E1,3.6382294E-1,0E0,1.975291E1,7.9169075E1,0E0,0E0,0E0,0E0,0E0,0E0,0E0],"parents":[2147483647,0,0,1,1,2,2,3,3,4,4,7,7,8,8,10,10,11,11],"right_children":[2,4,6,8,10,-1,-1,12,14,-1,16,18,-1,-1,-1,-1,-1,-1,-1],"split_conditions":[2E0,9.6E1,2.47E2,4.8E1,2.24E2,1.373351E-1,-1.4113072E-1,6.2E1,1.3E1,1.443851E-1,1E0,7E0,-1.972109E-1,-1.8510742E-1,-5.1533997E-2,1.0231469E-1,-1.836829E-1,1.3096623E-2,-1.20817564E-1],"split_indices":[11874,10935,9603,10359,10563,0,0,10947,7134,0,195,11898,0,0,0,0,0,0,0],"split_type":[0,0,0,0,0,0,0,0,0,0,0,0,0,0,0,0,0,0,0],"sum_hessian":[5.640414E2,5.1715515E2,4.6886185E1,4.5488174E2,6.2273426E1,4.542503E1,1.4611583E0,4.2478046E2,3.010131E1,5.0889904E1,1.1383522E1,4.00792E2,2.3988459E1,2.8958494E1,1.1428177E0,2.4757824E0,8.90774E0,3.5131958E2,4.947239E1],"tree_param":{"num_deleted":"0","num_feature":"12292","num_nodes":"19","size_leaf_vector":"1"}},{"base_weights":[-4.9812614E-4,-1.0671225E-1,1.2055334E0,6.0726143E-2,-9.4224185E-1,1.3213395E-1,-1.3130699E-1,1.6613296E-1,-1.5129377E0,-1.1746026E0,1.2709697E-1,3.486543E-1,-7.591399E-1,-1.7694995E-1,9.9182E-2,-1.3536267E0,1.2474717E-1,4.5174126E-2,-1.923396E-1,-9.7652756E-2,1.2894957E-1,-1.4659853E-1,1.1373037E-1],"categories":[],"categories_nodes":[],"categories_segments":[],"categories_sizes":[],"default_left":[0,0,0,0,0,0,0,0,0,0,0,0,0,0,0,0,0,0,0,0,0,0,0],"id":6,"left_children":[1,3,5,7,9,-1,-1,11,13,15,-1,17,19,-1,-1,21,-1,-1,-1,-1,-1,-1,-1],"loss_changes":[7.146992E1,7.179355E1,1.49066925E1,7.126334E1,4.5546646E1,0E0,0E0,6.8177505E1,1.9089237E1,3.552938E1,0E0,7.969784E1,3.0906212E1,0E0,0E0,2.2140976E1,0E0,0E0,0E0,0E0,0E0,0E0,0E0],"parents":[2147483647,0,0,1,1,2,2,3,3,4,4,7,7,8,8,9,9,11,11,12,12,15,15],"right_children":[2,4,6,8,10,-1,-1,12,14,16,-1,18,20,-1,-1,22,-1,-1,-1,-1,-1,-1,-1],"split_conditions":[2E0,6E0,2.47E2,3E0,4E0,1.3213395E-1,-1.3130699E-1,3E0,2E0,1.5E2,1.2709697E-1,8E0,2E0,-1.7694995E-1,9.9182E-2,1E0,1.2474717E-1,4.5174126E-2,-1.923396E-1,-9.7652756E-2,1.2894957E-1,-1.4659853E-1,1.1373037E-1],"split_indices":[11874,4575,9603,10932,11523,0,0,11511,10356,10938,0,8838,11895,0,0,9405,0,0,0,0,0,0,0],"split_type":[0,0,0,0,0,0,0,0,0,0,0,0,0,0,0,0,0,0,0,0,0,0,0],"sum_hessian":[5.5592914E2,5.1176956E2,4.4159573E1,4.2710577E2,8.466379E1,4.2672832E1,1.486742E0,4.0113168E2,2.5974085E1,7.704433E1,7.619458E0,3.355613E2,6.557037E1,2.3827034E1,2.147052E0,7.215242E1,4.8919096E0,3.2176352E2,1.3797807E1,5.97531E1,5.817276E0,6.9432014E1,2.7204041E0],"tree_param":{"num_deleted":"0","num_feature":"12292","num_nodes":"23","size_leaf_vector":"1"}},{"base_weights":[1.7169554E-4,1.0718605E-1,-1.1061469E0,1.7101812E-1,-1.69896E0,-1.4163382E0,1.2087964E-1,3.0890286E-1,-8.07048E-1,5.8401287E-2,-2.0139523E0,-1.5488737E0,9.477842E-2,4.0939513E-1,-1.7035978E-1,1.2153784E0,-1.2484573E0,-2.3586912E-1,-1.0694175E-1,-1.6432397E0,8.9412235E-2,4.992596E-2,-1.59411E-1,3.3896532E-2,1.2677369E-1,-1.5602022E-1,3.5598066E-2,-5.7304263E-2,-1.6677766E-1],"categories":[],"categories_nodes":[],"categories_segments":[],"categories_sizes":[],"default_left":[0,0,0,0,0,0,0,0,0,0,0,0,0,0,0,0,0,0,0,0,0,0,0,0,0,0,0,0,0],"id":7,"left_children":[1,3,5,7,9,11,-1,13,15,-1,17,19,-1,21,-1,23,25,-1,-1,27,-1,-1,-1,-1,-1,-1,-1,-1,-1],"loss_changes":[6.508202E1,5.8077473E1,3.652743E1,6.56606E1,1.3545792E1,1.5008789E1,0E0,8.6816315E1,5.5264442E1,0E0,2.4726562E0,1.0990677E1,0E0,7.396174E1,0E0,8.848572E-2,2.552076E1,0E0,0E0,9.77478E-2,0E0,0E0,0E0,0E0,0E0,0E0,0E0,0E0,0E0],"parents":[2147483647,0,0,1,1,2,2,3,3,4,4,5,5,7,7,8,8,10,10,11,11,13,13,15,15,16,16,19,19],"right_children":[2,4,6,8,10,12,-1,14,16,-1,18,20,-1,22,-1,24,26,-1,-1,28,-1,-1,-1,-1,-1,-1,-1,-1,-1],"split_conditions":[1.6E1,2.32E2,2.49E2,2.8E1,3E0,1E0,1.2087964E-1,1.95E2,1E0,5.8401287E-2,1.7E2,2.05E2,9.477842E-2,5.3E1,-1.7035978E-1,9.6E1,2.41E2,-2.3586912E-1,-1.0694175E-1,7.7E1,8.9412235E-2,4.992596E-2,-1.59411E-1,3.3896532E-2,1.2677369E-1,-1.5602022E-1,3.5598066E-2,-5.7304263E-2,-1.6677766E-1],"split_indices":[11898,8451,11907,11916,7155,9981,0,10563,7137,0,8835,9843,0,10575,0,8385,11331,0,0,5889,0,0,0,0,0,0,0,0,0],"split_type":[0,0,0,0,0,0,0,0,0,0,0,0,0,0,0,0,0,0,0,0,0,0,0,0,0,0,0,0,0],"sum_hessian":[5.477151E2,5.0023077E2,4.748428E1,4.8402972E2,1.6201067E1,4.2215748E1,5.268533E0,4.2482358E2,5.9206146E1,1.8607614E0,1.4340306E1,4.0301254E1,1.9144925E0,4.05378E2,1.9445583E1,1.0292962E1,4.891318E1,9.40899E0,4.931316E0,3.911762E1,1.1836365E0,3.8869446E2,1.6683542E1,1.0015879E0,9.291374E0,4.097855E1,7.9346313E0,1.4226311E0,3.769499E1],"tree_param":{"num_deleted":"0","num_feature":"12292","num_nodes":"29","size_leaf_vector":"1"}},{"base_weights":[-7.2225387E-4,-9.557028E-2,1.1400506E0,-2.2632475E-1,8.930434E-1,1.2617108E-1,-1.2600799E-1,-1.271486E-1,-1.6199648E0,1.3525556E-1,-1.0273077E0,5.5488064E-3,-1.3194872E0,-1.6511296E-1,-3.7183255E-2,9.154752E-2,-1.5628785E-1,1.5708491E-2,-1.01976134E-1,1.16403535E-1,-1.7617814E-1],"categories":[],"categories_nodes":[],"categories_segments":[],"categories_sizes":[],"default_left":[0,0,0,0,0,0,0,0,0,0,0,0,0,0,0,0,0,0,0,0,0],"id":8,"left_children":[1,3,5,7,9,-1,-1,11,13,-1,15,17,19,-1,-1,-1,-1,-1,-1,-1,-1],"loss_changes":[5.8279823E1,6.448299E1,1.366291E1,6.0607292E1,5.2825684E1,0E0,0E0,6.516905E1,5.197525E-1,0E0,1.3732675E1,5.7895206E1,4.7360207E1,0E0,0E0,0E0,0E0,0E0,0E0,0E0,0E0],"parents":[2147483647,0,0,1,1,2,2,3,3,4,4,7,7,8,8,10,10,11,11,12,12],"right_children":[2,4,6,8,10,-1,-1,12,14,-1,16,18,20,-1,-1,-1,-1,-1,-1,-1,-1],"split_conditions":[2E0,9.6E1,2.47E2,4.8E1,2.24E2,1.2617108E-1,-1.2600799E-1,2.21E2,3.5E1,1.3525556E-1,1E0,7E0,1E0,-1.6511296E-1,-3.7183255E-2,9.154752E-2,-1.5628785E-1,1.5708491E-2,-1.01976134E-1,1.16403535E-1,-1.7617814E-1],"split_indices":[11874,10935,9603,10359,10563,0,0,11139,7326,0,195,11898,11511,0,0,0,0,0,0,0,0],"split_type":[0,0,0,0,0,0,0,0,0,0,0,0,0,0,0,0,0,0,0,0,0],"sum_hessian":[5.366233E2,4.962772E2,4.0346073E1,4.3898758E2,5.7289623E1,3.885107E1,1.495004E0,4.1084192E2,2.814567E1,4.646653E1,1.0823091E1,3.705933E2,4.0248615E1,2.7145004E1,1.0006661E0,2.1855745E0,8.637516E0,3.2361176E2,4.698153E1,5.837682E0,3.4410934E1],"tree_param":{"num_deleted":"0","num_feature":"12292","num_nodes":"21","size_leaf_vector":"1"}},{"base_weights":[-8.414912E-4,1.5077475E-1,-6.847298E-1,2.3845407E-1,-1.3542709E0,-8.988234E-1,1.1311963E0,3.1171554E-1,-1.7820127E0,-1.4004451E-1,-1.4952786E-2,-1.5293423E0,-1.9570583E-1,7.6469067E-3,1.2353543E-1,4.8484173E-1,-5.7625365E-1,-1.8550931E-1,-4.8534516E-2,-1.6679046E0,9.255163E-2,-9.6841615E-1,5.3020877E-1,6.1309543E-2,-8.09917E-2,-2.219605E-2,-1.6874234E-1,-1.7494217E-1,7.734636E-2,-6.0069733E-3,-1.575033E-1,1.0523802E-1,-1.1066907E-1],"categories":[],"categories_nodes":[],"categories_segments":[],"categories_sizes":[],"default_left":[0,0,0,0,0,0,0,0,0,0,0,0,0,0,0,0,0,0,0,0,0,0,0,0,0,0,0,0,0,0,0,0,0],"id":9,"left_children":[1,3,5,7,9,11,13,15,17,-1,-1,19,21,-1,-1,23,25,-1,-1,27,-1,29,31,-1,-1,-1,-1,-1,-1,-1,-1,-1,-1],"loss_changes":[5.4771393E1,5.7380177E1,3.828342E1,6.1159706E1,1.1230011E0,3.7961662E1,1.0647688E0,6.1149246E1,4.7130966E-1,0E0,0E0,1.6970947E1,2.4043901E1,0E0,0E0,5.5609657E1,2.5238077E1,0E0,0E0,9.967957E0,0E0,1.1296946E1,2.0204857E1,0E0,0E0,0E0,0E0,0E0,0E0,0E0,0E0,0E0,0E0],"parents":[2147483647,0,0,1,1,2,2,3,3,4,4,5,5,6,6,7,7,8,8,11,11,12,12,15,15,16,16,19,19,21,21,22,22],"right_children":[2,4,6,8,10,12,14,16,18,-1,-1,20,22,-1,-1,24,26,-1,-1,28,-1,30,32,-1,-1,-1,-1,-1,-1,-1,-1,-1,-1],"split_conditions":[2.4E1,2.39E2,3E0,1.87E2,2E0,1.31E2,1E0,3E0,2E0,-1.4004451E-1,-1.4952786E-2,2E0,1.73E2,7.6469067E-3,1.2353543E-1,3E0,2.09E2,-1.8550931E-1,-4.8534516E-2,1.71E2,9.255163E-2,5E0,7E0,6.1309543E-2,-8.09917E-2,-2.219605E-2,-1.6874234E-1,-1.7494217E-1,7.734636E-2,-6.0069733E-3,-1.575033E-1,1.0523802E-1,-1.1066907E-1],"split_indices":[5922,10566,11523,11745,198,9276,11319,11511,1401,0,0,10737,6303,0,0,12090,11130,0,0,1218,0,5538,11898,0,0,0,0,0,0,0,0,0,0],"split_type":[0,0,0,0,0,0,0,0,0,0,0,0,0,0,0,0,0,0,0,0,0,0,0,0,0,0,0,0,0,0,0,0,0],"sum_hessian":[5.2623413E2,4.3137823E2,9.485589E1,4.0842615E2,2.295209E1,8.5303795E1,9.552093E0,3.9495108E2,1.3475077E1,2.194843E1,1.0036595E0,4.4354195E1,4.0949596E1,1.0143838E0,8.537708E0,3.3089157E2,6.405951E1,1.23484535E1,1.1266232E0,4.2287865E1,2.0663316E0,1.9673641E1,2.1275955E1,3.015479E2,2.934366E1,4.9482056E1,1.4577453E1,4.119577E1,1.092095E0,8.317727E0,1.1355914E1,1.640109E1,4.874864E0],"tree_param":{"num_deleted":"0","num_feature":"12292","num_nodes":"33","size_leaf_vector":"1"}},{"base_weights":[-1.9018725E-3,-7.914039E-2,1.1900154E0,3.724167E-2,-1.1281509E0,5.660386E-3,1.22669816E-1,1.9846745E-1,-6.187205E-1,-1.3815936E0,1.0653051E-1,3.1471783E-1,-1.0486046E0,-9.1032857E-1,1.1821215E0,-1.5986226E0,1.0529788E-1,4.1103035E-2,-1.5995143E-1,1.0442356E-1,-1.3952594E-1,-1.5818338E-1,-2.4529671E-2,-1.0956263E-2,1.3103908E-1,-1.7515568E-1,9.6564904E-2],"categories":[],"categories_nodes":[],"categories_segments":[],"categories_sizes":[],"default_left":[0,0,0,0,0,0,0,0,0,0,0,0,0,0,0,0,0,0,0,0,0,0,0,0,0,0,0],"id":10,"left_children":[1,3,5,7,9,-1,-1,11,13,15,-1,17,19,21,23,25,-1,-1,-1,-1,-1,-1,-1,-1,-1,-1,-1],"loss_changes":[4.7621155E1,5.9347702E1,1.2394104E0,4.646874E1,2.845784E1,0E0,0E0,5.1436386E1,4.6606823E1,2.4905716E1,0E0,6.0250282E1,2.3432571E1,3.3187084E1,2.2175999E0,1.767234E1,0E0,0E0,0E0,0E0,0E0,0E0,0E0,0E0,0E0,0E0,0E0],"parents":[2147483647,0,0,1,1,2,2,3,3,4,4,7,7,8,8,9,9,11,11,12,12,13,13,14,14,15,15],"right_children":[2,4,6,8,10,-1,-1,12,14,16,-1,18,20,22,24,26,-1,-1,-1,-1,-1,-1,-1,-1,-1,-1,-1],"split_conditions":[1.17E2,1.3E1,4E0,2.6E1,7E0,5.660386E-3,1.22669816E-1,2.46E2,2E0,1.8E1,1.0653051E-1,1.95E2,1E0,1.29E2,1.06E2,5E0,1.0529788E-1,4.1103035E-2,-1.5995143E-1,1.0442356E-1,-1.3952594E-1,-1.5818338E-1,-2.4529671E-2,-1.0956263E-2,1.3103908E-1,-1.7515568E-1,9.6564904E-2],"split_indices":[11307,8442,4668,5922,10935,0,0,11916,9210,9996,0,10563,888,9471,8355,11130,0,0,0,0,0,0,0,0,0,0,0],"split_type":[0,0,0,0,0,0,0,0,0,0,0,0,0,0,0,0,0,0,0,0,0,0,0,0,0,0,0],"sum_hessian":[5.152501E2,4.8476974E2,3.0480402E1,4.3722635E2,4.7543404E1,1.0352948E0,2.9445107E1,3.5152432E2,8.570203E1,4.295079E1,4.592616E0,3.2223373E2,2.9290562E1,7.4184006E1,1.1518023E1,3.9750603E1,3.2001858E0,3.0754523E2,1.468853E1,3.876266E0,2.5414297E1,3.6226395E1,3.7957607E1,1.0536366E0,1.0464386E1,3.7812397E1,1.9382076E0],"tree_param":{"num_deleted":"0","num_feature":"12292","num_nodes":"27","size_leaf_vector":"1"}},{"base_weights":[-1.5571069E-3,-8.113042E-2,1.0595124E0,-1.9470681E-1,8.317225E-1,1.1863649E-1,-1.0995474E-1,-2.7161586E-1,1.2697287E0,1.2725118E-1,-9.290068E-1,-1.2871175E-1,-1.0335761E0,2.0522956E-2,1.3125275E-1,8.442002E-2,-1.4035164E-1,-2.4074386E-3,-1.4496063E-1,-1.5767862E-1,-2.0364657E-2],"categories":[],"categories_nodes":[],"categories_segments":[],"categories_sizes":[],"default_left":[0,0,0,0,0,0,0,0,0,0,0,0,0,0,0,0,0,0,0,0,0],"id":11,"left_children":[1,3,5,7,9,-1,-1,11,13,-1,15,17,19,-1,-1,-1,-1,-1,-1,-1,-1],"loss_changes":[4.2787113E1,4.9034824E1,1.0986893E1,4.7653156E1,4.1811375E1,0E0,0E0,4.3411396E1,6.9353104E-1,0E0,1.0490365E1,4.6666508E1,2.8087273E1,0E0,0E0,0E0,0E0,0E0,0E0,0E0,0E0],"parents":[2147483647,0,0,1,1,2,2,3,3,4,4,7,7,8,8,10,10,11,11,12,12],"right_children":[2,4,6,8,10,-1,-1,12,14,-1,16,18,20,-1,-1,-1,-1,-1,-1,-1,-1],"split_conditions":[2E0,9.6E1,2.47E2,1.2E1,2.24E2,1.1863649E-1,-1.0995474E-1,2E0,1E0,1.2725118E-1,1E0,8E0,1E0,2.0522956E-2,1.3125275E-1,8.442002E-2,-1.4035164E-1,-2.4074386E-3,-1.4496063E-1,-1.5767862E-1,-2.0364657E-2],"split_indices":[11874,10935,9603,11895,10563,0,0,11892,1212,0,195,8451,11133,0,0,0,0,0,0,0,0],"split_type":[0,0,0,0,0,0,0,0,0,0,0,0,0,0,0,0,0,0,0,0,0],"sum_hessian":[5.0474118E2,4.7038864E2,3.435255E1,4.1903888E2,5.134976E1,3.2871735E1,1.4808131E0,3.9890384E2,2.0135057E1,4.1290245E1,1.0059513E1,3.3688977E2,6.2014065E1,1.0022477E0,1.9132809E1,1.9591637E0,8.100349E0,3.1310477E2,2.378501E1,3.693758E1,2.5076485E1],"tree_param":{"num_deleted":"0","num_feature":"12292","num_nodes":"21","size_leaf_vector":"1"}},{"base_weights":[-1.086492E-3,1.273227E-1,-6.411069E-1,1.8623762E-1,-1.6407415E0,-8.109276E-1,1.151398E-1,2.7436563E-1,-1.0957025E0,-1.7201579E-1,-4.101271E-2,-9.4815E-1,1.1461009E-1,3.8077196E-1,-8.6204964E-1,-1.3719594E0,9.639459E-2,-1.1118193E0,1.0456989E-1,5.7289507E-2,-5.1351406E-2,-1.24255255E-1,1.160272E-1,-1.5080307E-1,6.4224176E-2,-1.3507897E-1,-5.278805E-3],"categories":[],"categories_nodes":[],"categories_segments":[],"categories_sizes":[],"default_left":[0,0,0,0,0,0,0,0,0,0,0,0,0,0,0,0,0,0,0,0,0,0,0,0,0,0,0],"id":12,"left_children":[1,3,5,7,9,11,-1,13,15,-1,-1,17,-1,19,21,23,-1,25,-1,-1,-1,-1,-1,-1,-1,-1,-1],"loss_changes":[4.09568E1,4.3542664E1,2.628368E1,4.5783638E1,6.1263275E-1,2.1672813E1,0E0,4.5975914E1,1.6171284E1,0E0,0E0,2.4717789E1,0E0,5.9719337E1,2.6547749E1,7.3881683E0,0E0,1.693309E1,0E0,0E0,0E0,0E0,0E0,0E0,0E0,0E0,0E0],"parents":[2147483647,0,0,1,1,2,2,3,3,4,4,5,5,7,7,8,8,11,11,13,13,14,14,15,15,17,17],"right_children":[2,4,6,8,10,12,-1,14,16,-1,-1,18,-1,20,22,24,-1,26,-1,-1,-1,-1,-1,-1,-1,-1,-1],"split_conditions":[6E0,1.37E2,4E0,3E0,1.57E2,1.5E2,1.151398E-1,7E0,2E0,-1.7201579E-1,-4.101271E-2,2E0,1.1461009E-1,3E0,2.49E2,1.22E2,9.639459E-2,2.54E2,1.0456989E-1,5.7289507E-2,-5.1351406E-2,-1.24255255E-1,1.160272E-1,-1.5080307E-1,6.4224176E-2,-1.3507897E-1,-5.278805E-3],"split_indices":[4575,11550,11523,10932,6093,10938,0,11898,10356,0,0,12063,0,11511,11907,11118,0,4761,0,0,0,0,0,0,0,0,0],"split_type":[0,0,0,0,0,0,0,0,0,0,0,0,0,0,0,0,0,0,0,0,0,0,0,0,0,0,0],"sum_hessian":[4.963586E2,4.1408133E2,8.22773E1,4.0159418E2,1.2487139E1,7.565719E1,6.6201096E0,3.7649753E2,2.5096655E1,1.1356457E1,1.1306815E0,7.118161E1,4.475576E0,3.4487106E2,3.162648E1,2.2422987E1,2.673668E0,6.619059E1,4.99102E0,2.8417908E2,6.0691963E1,2.6942743E1,4.683737E0,2.1239437E1,1.1835487E0,5.377971E1,1.2410885E1],"tree_param":{"num_deleted":"0","num_feature":"12292","num_nodes":"27","size_leaf_vector":"1"}},{"base_weights":[-9.4453775E-4,-6.312386E-2,1.2233057E-1,9.223567E-2,-5.9981924E-1,1.7555663E-1,-1.3097976E-1,-7.7598286E-1,1.1532217E0,2.4416162E-1,-1.5864341E-1,-1.604238E0,-4.2260817E-1,1.21647336E-1,3.0773282E-2,3.2251988E-2,-1.13415256E-1,-1.7147861E-1,7.568903E-3,-1.4177129E-1,-8.381862E-3],"categories":[],"categories_nodes":[],"categories_segments":[],"categories_sizes":[],"default_left":[0,0,0,0,0,0,0,0,0,0,0,0,0,0,0,0,0,0,0,0,0],"id":13,"left_children":[1,3,-1,5,7,9,-1,11,13,15,-1,17,19,-1,-1,-1,-1,-1,-1,-1,-1],"loss_changes":[3.708653E1,3.871307E1,0E0,4.2333252E1,3.3078293E1,4.161756E1,0E0,2.7213425E1,1.5607452E-1,3.5916256E1,0E0,5.355942E0,2.2858025E1,0E0,0E0,0E0,0E0,0E0,0E0,0E0,0E0],"parents":[2147483647,0,0,1,1,3,3,4,4,5,5,7,7,8,8,9,9,11,11,12,12],"right_children":[2,4,-1,6,8,10,-1,12,14,16,-1,18,20,-1,-1,-1,-1,-1,-1,-1,-1],"split_conditions":[8E0,1.9E1,1.2233057E-1,2.16E2,1E1,1.87E2,-1.3097976E-1,9.9E1,2.54E2,1.95E2,-1.5864341E-1,2E0,9.9E1,1.21647336E-1,3.0773282E-2,3.2251988E-2,-1.13415256E-1,-1.7147861E-1,7.568903E-3,-1.4177129E-1,-8.381862E-3],"split_indices":[11154,5343,0,10566,11514,11745,0,8115,6585,10563,0,11262,3348,0,0,0,0,0,0,0,0],"split_type":[0,0,0,0,0,0,0,0,0,0,0,0,0,0,0,0,0,0,0,0,0],"sum_hessian":[4.8517755E2,4.6262918E2,2.2548367E1,3.594157E2,1.0321347E2,3.4008E2,1.9335712E1,9.429508E1,8.918391E0,3.28164E2,1.1915989E1,2.7141012E1,6.715407E1,7.8893976E0,1.028993E0,3.11236E2,1.6928009E1,2.5445795E1,1.6952174E0,1.6247293E1,5.0906773E1],"tree_param":{"num_deleted":"0","num_feature":"12292","num_nodes":"21","size_leaf_vector":"1"}},{"base_weights":[-1.8189765E-3,-6.540791E-2,1.1265856E0,3.5623487E-2,-1.0483514E0,1.1645317E-1,1.2950304E-2,1.3939255E-1,-8.404621E-1,-1.2712216E0,9.613702E-2,2.3291144E-1,-9.1343963E-1,-1.1287087E0,1.1463064E-1,-1.4832628E0,9.792448E-2,3.1254135E-2,-1.2856513E-1,1.0313576E-1,-1.2792246E-1,-1.2738095E-1,1.0110529E-1,-1.6338663E-1,8.8134944E-2],"categories":[],"categories_nodes":[],"categories_segments":[],"categories_sizes":[],"default_left":[0,0,0,0,0,0,0,0,0,0,0,0,0,0,0,0,0,0,0,0,0,0,0,0,0],"id":14,"left_children":[1,3,5,7,9,-1,-1,11,13,15,-1,17,19,21,-1,23,-1,-1,-1,-1,-1,-1,-1,-1,-1],"loss_changes":[3.4345104E1,4.5032772E1,8.152962E-1,3.7556503E1,2.0151932E1,0E0,0E0,3.6551315E1,2.6351818E1,1.981218E1,0E0,4.148645E1,2.2882467E1,1.33083725E1,0E0,1.4103317E1,0E0,0E0,0E0,0E0,0E0,0E0,0E0,0E0,0E0],"parents":[2147483647,0,0,1,1,2,2,3,3,4,4,7,7,8,8,9,9,11,11,12,12,13,13,15,15],"right_children":[2,4,6,8,10,-1,-1,12,14,16,-1,18,20,22,-1,24,-1,-1,-1,-1,-1,-1,-1,-1,-1],"split_conditions":[9.6E1,1.3E1,1.6E1,7E0,7E0,1.1645317E-1,1.2950304E-2,2.46E2,2.49E2,1.8E1,9.613702E-2,8.4E1,1E0,1E0,1.1463064E-1,5E0,9.792448E-2,3.1254135E-2,-1.2856513E-1,1.0313576E-1,-1.2792246E-1,-1.2738095E-1,1.0110529E-1,-1.6338663E-1,8.8134944E-2],"split_indices":[11118,8442,12060,11898,10935,0,0,11916,11907,9996,0,11112,888,9981,0,11130,0,0,0,0,0,0,0,0,0],"split_type":[0,0,0,0,0,0,0,0,0,0,0,0,0,0,0,0,0,0,0,0,0,0,0,0,0],"sum_hessian":[4.7662344E2,4.5208893E2,2.4534513E1,4.108261E2,4.1262817E1,2.347325E1,1.0612648E0,3.6807043E2,4.2755676E1,3.7474506E1,3.7883117E0,3.3875864E2,2.9311802E1,3.7715656E1,5.0400195E0,3.455921E1,2.915294E0,3.226346E2,1.612402E1,4.352255E0,2.4959547E1,3.569951E1,2.0161488E0,3.278044E1,1.7787719E0],"tree_param":{"num_deleted":"0","num_feature":"12292","num_nodes":"25","size_leaf_vector":"1"}},{"base_weights":[-1.4166983E-3,1.2854448E-1,-5.265484E-1,2.0207481E-1,-1.1509507E0,-6.539569E-1,1.0956527E-1,2.8843752E-1,-8.6771345E-1,-1.399129E-1,8.082619E-2,-7.7470684E-1,9.8854625E-1,3.3917367E-1,-1.8084413E0,9.731307E-2,-1.2076766E0,-9.1324234E-1,9.4135994E-1,1.0722258E-1,2.8088724E-2,4.055408E-2,-1.3831262E-1,-1.5987627E-2,-2.059183E-1,-1.435344E-1,6.3286684E-2,-1.1044079E-1,-2.1286618E-3,1.1314043E-1,-2.5060328E-3],"categories":[],"categories_nodes":[],"categories_segments":[],"categories_sizes":[],"default_left":[0,0,0,0,0,0,0,0,0,0,0,0,0,0,0,0,0,0,0,0,0,0,0,0,0,0,0,0,0,0,0],"id":15,"left_children":[1,3,5,7,9,11,-1,13,15,-1,-1,17,19,21,23,-1,25,27,29,-1,-1,-1,-1,-1,-1,-1,-1,-1,-1,-1,-1],"loss_changes":[3.19522E1,3.554272E1,1.9913378E1,3.311961E1,1.1120943E1,1.7969875E1,0E0,3.5715218E1,1.79627E1,0E0,0E0,2.0202847E1,7.660866E-2,3.7480026E1,2.9581242E0,0E0,1.0583553E1,1.2900169E1,1.2350473E0,0E0,0E0,0E0,0E0,0E0,0E0,0E0,0E0,0E0,0E0,0E0,0E0],"parents":[2147483647,0,0,1,1,2,2,3,3,4,4,5,5,7,7,8,8,11,11,12,12,13,13,14,14,16,16,17,17,18,18],"right_children":[2,4,6,8,10,12,-1,14,16,-1,-1,18,20,22,24,-1,26,28,30,-1,-1,-1,-1,-1,-1,-1,-1,-1,-1,-1,-1],"split_conditions":[3E0,6.1E1,4E0,2.46E2,2.09E2,2E0,1.0956527E-1,2.04E2,1E0,-1.399129E-1,8.082619E-2,9.1E1,1.59E2,1.37E2,5E0,9.731307E-2,2.38E2,2.53E2,8.1E1,1.0722258E-1,2.8088724E-2,4.055408E-2,-1.3831262E-1,-1.5987627E-2,-2.059183E-1,-1.435344E-1,6.3286684E-2,-1.1044079E-1,-2.1286618E-3,1.1314043E-1,-2.5060328E-3],"split_indices":[3996,11145,11523,11916,10179,11340,0,11511,888,0,0,10938,2598,11550,6009,0,6291,4761,4383,0,0,0,0,0,0,0,0,0,0,0,0],"split_type":[0,0,0,0,0,0,0,0,0,0,0,0,0,0,0,0,0,0,0,0,0,0,0,0,0,0,0,0,0,0,0],"sum_hessian":[4.6619476E2,3.743137E2,9.188107E1,3.5476785E2,1.9545815E1,8.57436E1,6.137477E0,3.2894305E2,2.58248E1,1.7601997E1,1.9438174E0,8.036392E1,5.3796797E0,3.2199042E2,6.952644E0,3.735458E0,2.2089342E1,7.4793755E1,5.570161E0,4.350113E0,1.0295665E0,3.107794E2,1.1211036E1,1.1340642E0,5.8185797E0,1.9853678E1,2.2356644E0,6.139688E1,1.3396876E1,4.5121417E0,1.0580192E0],"tree_param":{"num_deleted":"0","num_feature":"12292","num_nodes":"31","size_leaf_vector":"1"}},{"base_weights":[-1.7193293E-3,3.9596714E-2,-1.5866445E-1,-2.6318114E-2,1.1188651E0,-1.219604E-1,7.8344625E-1,1.2637227E0,-6.4097665E-2,-2.0156364E-1,1.0835296E0,1.1992524E-1,-8.2795876E-1,1.2931772E-1,3.1187082E-2,-2.7659236E-2,1.17428444E-1,1.1245125E-1,9.049758E-3,7.634007E-2,-1.253834E-1],"categories":[],"categories_nodes":[],"categories_segments":[],"categories_sizes":[],"default_left":[0,0,0,0,0,0,0,0,0,0,0,0,0,0,0,0,0,0,0,0,0],"id":16,"left_children":[1,3,-1,5,7,9,11,13,-1,15,17,-1,19,-1,-1,-1,-1,-1,-1,-1,-1],"loss_changes":[3.005159E1,3.1850594E1,0E0,3.2819946E1,7.3792305E0,3.656516E1,3.0989643E1,2.7365112E-1,0E0,3.708921E1,8.5946274E-1,0E0,7.5814013E0,0E0,0E0,0E0,0E0,0E0,0E0,0E0,0E0],"parents":[2147483647,0,0,1,1,3,3,4,4,5,5,6,6,7,7,9,9,10,10,12,12],"right_children":[2,4,-1,6,8,10,12,14,-1,16,18,-1,20,-1,-1,-1,-1,-1,-1,-1,-1],"split_conditions":[9E0,2E0,-1.5866445E-1,9.6E1,1.31E2,1.17E2,2.24E2,2.54E2,-6.4097665E-2,1.2E1,1.87E2,1.1992524E-1,1E0,1.2931772E-1,3.1187082E-2,-2.7659236E-2,1.17428444E-1,1.1245125E-1,9.049758E-3,7.634007E-2,-1.253834E-1],"split_indices":[10143,11457,0,10935,3612,11307,10563,3219,0,11895,9978,0,195,0,0,0,0,0,0,0,0],"split_type":[0,0,0,0,0,0,0,0,0,0,0,0,0,0,0,0,0,0,0,0,0],"sum_hessian":[4.569637E2,4.463044E2,1.06593075E1,4.2153534E2,2.4769075E1,3.7776627E2,4.3769062E1,2.3145792E1,1.6232837E0,3.551473E2,2.2618977E1,3.4994797E1,8.774268E0,2.210323E1,1.0425633E0,3.3753934E2,1.7607962E1,2.1595325E1,1.0236509E0,1.6850883E0,7.08918E0],"tree_param":{"num_deleted":"0","num_feature":"12292","num_nodes":"21","size_leaf_vector":"1"}},{"base_weights":[-2.5900072E-4,-5.563977E-2,1.1670037E-1,-1.4186709E-1,7.491251E-1,-7.346865E-2,-1.4082794E-1,1.17138915E-1,-8.067654E-1,-1.3851628E-1,1.2573813E-1,7.3942855E-2,-1.2117349E-1,-2.222691E-2,8.485907E-2],"categories":[],"categories_nodes":[],"categories_segments":[],"categories_sizes":[],"default_left":[0,0,0,0,0,0,0,0,0,0,0,0,0,0,0],"id":17,"left_children":[1,3,-1,5,7,9,-1,-1,11,13,-1,-1,-1,-1,-1],"loss_changes":[2.9238356E1,3.007053E1,0E0,3.3752964E1,2.8504782E1,3.2367775E1,0E0,0E0,6.873673E0,2.957528E1,0E0,0E0,0E0,0E0,0E0],"parents":[2147483647,0,0,1,1,3,3,4,4,5,5,8,8,9,9],"right_children":[2,4,-1,6,8,10,-1,-1,12,14,-1,-1,-1,-1,-1],"split_conditions":[8E0,9.6E1,1.1670037E-1,6.2E1,2.24E2,1E0,-1.4082794E-1,1.17138915E-1,1E0,2E0,1.2573813E-1,7.3942855E-2,-1.2117349E-1,-2.222691E-2,8.485907E-2],"split_indices":[11154,10935,0,10947,10563,10365,0,0,195,11268,0,0,0,0,0],"split_type":[0,0,0,0,0,0,0,0,0,0,0,0,0,0,0],"sum_hessian":[4.5029416E2,4.308069E2,1.9487293E1,3.898588E2,4.0948082E1,3.7088544E2,1.8973366E1,3.240153E1,8.546552E0,3.5445667E2,1.6428774E1,1.6024458E0,6.944106E0,3.2744855E2,2.7008114E1],"tree_param":{"num_deleted":"0","num_feature":"12292","num_nodes":"15","size_leaf_vector":"1"}},{"base_weights":[8.486819E-4,3.8067132E-2,-1.6666734E0,-2.1885369E-2,1.2559438E-1,4.358038E-2,-1.9968596E0,1.05273984E-1,-6.097986E-1,-5.1641226E-2,-2.1345758E-1,1.7763178E-1,-1.24785975E-1,-8.016757E-1,9.9875003E-1,2.2109263E-2,-1.832255E-1,-1.2527202E-1,-1.14470655E-2,1.0885718E-1,1.7419064E-2],"categories":[],"categories_nodes":[],"categories_segments":[],"categories_sizes":[],"default_left":[0,0,0,0,0,0,0,0,0,0,0,0,0,0,0,0,0,0,0,0,0],"id":18,"left_children":[1,3,5,7,-1,-1,9,11,13,-1,-1,15,-1,17,19,-1,-1,-1,-1,-1,-1],"loss_changes":[2.7677156E1,3.18763E1,7.6292324E0,3.1217226E1,0E0,0E0,6.498184E-1,3.3850166E1,2.371759E1,0E0,0E0,2.8960741E1,0E0,2.0590462E1,4.2943E-1,0E0,0E0,0E0,0E0,0E0,0E0],"parents":[2147483647,0,0,1,1,2,2,3,3,6,6,7,7,8,8,11,11,13,13,14,14],"right_children":[2,4,6,8,-1,-1,10,12,14,-1,-1,16,-1,18,20,-1,-1,-1,-1,-1,-1],"split_conditions":[1.44E2,2E0,9.6E1,2.6E1,1.2559438E-1,4.358038E-2,9.4E1,2.39E2,3E0,-5.1641226E-2,-2.1345758E-1,2E0,-1.24785975E-1,1.4E2,1.38E2,2.2109263E-2,-1.832255E-1,-1.2527202E-1,-1.14470655E-2,1.0885718E-1,1.7419064E-2],"split_indices":[12042,10728,8364,5922,0,0,6399,10566,11523,0,0,5001,0,10053,1062,0,0,0,0,0,0],"split_type":[0,0,0,0,0,0,0,0,0,0,0,0,0,0,0,0,0,0,0,0,0],"sum_hessian":[4.439333E2,4.3519702E2,8.736258E0,4.1571463E2,1.9482386E1,1.1423582E0,7.5938997E0,3.4246423E2,7.325042E1,1.0505317E0,6.543368E0,3.259054E2,1.6558817E1,6.5892044E1,7.358373E0,3.198785E2,6.0269065E0,3.9284733E1,2.660731E1,6.34681E0,1.0115634E0],"tree_param":{"num_deleted":"0","num_feature":"12292","num_nodes":"21","size_leaf_vector":"1"}},{"base_weights":[-1.8280731E-4,7.9042085E-2,-7.862539E-1,1.0617759E-2,1.1251885E0,-1.0531898E0,1.06914304E-1,9.8995246E-2,-1.3417915E0,-2.8629173E-2,1.1993184E-1,-1.1932505E0,9.418048E-2,1.6428655E-1,-1.3343892E-1,-1.4770038E0,7.063517E-2,-1.3069146E0,1.00163154E-1,2.8831437E-2,-5.3264786E-2,-1.5161449E-1,-3.634148E-2,-3.7311528E-2,-1.3560323E-1],"categories":[],"categories_nodes":[],"categories_segments":[],"categories_sizes":[],"default_left":[0,0,0,0,0,0,0,0,0,0,0,0,0,0,0,0,0,0,0,0,0,0,0,0,0],"id":19,"left_children":[1,3,5,7,9,11,-1,13,15,-1,-1,17,-1,19,-1,21,-1,23,-1,-1,-1,-1,-1,-1,-1],"loss_changes":[2.7378647E1,2.8576523E1,2.10616E1,4.5058086E1,2.9077816E0,1.1097134E1,0E0,3.3325638E1,7.4472923E0,0E0,0E0,9.739582E0,0E0,2.9476103E1,0E0,4.0863037E-1,0E0,9.875603E-1,0E0,0E0,0E0,0E0,0E0,0E0,0E0],"parents":[2147483647,0,0,1,1,2,2,3,3,4,4,5,5,7,7,8,8,11,11,13,13,15,15,17,17],"right_children":[2,4,6,8,10,12,-1,14,16,-1,-1,18,-1,20,-1,22,-1,24,-1,-1,-1,-1,-1,-1,-1],"split_conditions":[7E0,2E0,2.49E2,8.6E1,1E0,1E0,1.06914304E-1,2.48E2,1E0,-2.8629173E-2,1.1993184E-1,2.05E2,9.418048E-2,6E0,-1.3343892E-1,2.55E2,7.063517E-2,9E1,1.00163154E-1,2.8831437E-2,-5.3264786E-2,-1.5161449E-1,-3.634148E-2,-3.7311528E-2,-1.3560323E-1],"split_indices":[11898,11895,11907,11130,9453,9981,0,9978,10365,0,0,9843,0,4575,0,4962,0,5649,0,0,0,0,0,0,0],"split_type":[0,0,0,0,0,0,0,0,0,0,0,0,0,0,0,0,0,0,0,0,0,0,0,0,0],"sum_hessian":[4.376333E2,3.983815E2,3.9251797E1,3.7487268E2,2.3508802E1,3.4692894E1,4.5589E0,3.5274805E2,2.2124643E1,1.0302469E0,2.2478556E1,3.2792538E1,1.9003588E0,3.3822702E2,1.4521009E1,2.101608E1,1.1085627E0,3.1562601E1,1.2299364E0,2.8762674E2,5.0600307E1,1.9953259E1,1.0628226E0,2.006799E0,2.9555801E1],"tree_param":{"num_deleted":"0","num_feature":"12292","num_nodes":"25","size_leaf_vector":"1"}},{"base_weights":[-5.1435956E-4,-5.5126783E-2,1.0669473E0,3.6729235E-2,-9.8341256E-1,1.1055372E-1,1.6751092E-2,-1.0484034E0,1.0102016E-1,-1.244894E0,3.6962754E-1,-3.260746E-1,-1.9194885E0,1.9499172E-1,-7.329922E-1,-1.3789042E0,4.792924E-2,-7.353573E-2,7.6481664E-1,-8.471236E-2,9.666291E-2,-2.198005E-1,1.9915495E-2,2.6066381E-2,-1.1062809E-1,-1.0040831E-1,1.032805E-1,-1.4547662E-1,3.448073E-2,9.314116E-2,2.3103757E-3],"categories":[],"categories_nodes":[],"categories_segments":[],"categories_sizes":[],"default_left":[0,0,0,0,0,0,0,0,0,0,0,0,0,0,0,0,0,0,0,0,0,0,0,0,0,0,0,0,0,0,0],"id":20,"left_children":[1,3,5,7,9,-1,-1,11,13,15,17,19,21,23,25,27,-1,-1,29,-1,-1,-1,-1,-1,-1,-1,-1,-1,-1,-1,-1],"loss_changes":[2.514487E1,3.502389E1,5.4346085E-1,2.622153E1,1.3544388E1,0E0,0E0,1.260387E1,2.7911848E1,7.875E0,3.5146227E0,9.372483E0,5.941334E0,2.7568546E1,1.8312807E1,4.3236084E0,0E0,0E0,6.5436697E-1,0E0,0E0,0E0,0E0,0E0,0E0,0E0,0E0,0E0,0E0,0E0,0E0],"parents":[2147483647,0,0,1,1,2,2,3,3,4,4,7,7,8,8,9,9,10,10,11,11,12,12,13,13,14,14,15,15,18,18],"right_children":[2,4,6,8,10,-1,-1,12,14,16,18,20,22,24,26,28,-1,-1,30,-1,-1,-1,-1,-1,-1,-1,-1,-1,-1,-1,-1],"split_conditions":[9.6E1,1.3E1,7E0,8E0,2E0,1.1055372E-1,1.6751092E-2,4.6E1,1E1,4E0,1.04E2,7.5E1,2.22E2,9.8E1,2.49E2,1.53E2,4.792924E-2,-7.353573E-2,1.18E2,-8.471236E-2,9.666291E-2,-2.198005E-1,1.9915495E-2,2.6066381E-2,-1.1062809E-1,-1.0040831E-1,1.032805E-1,-1.4547662E-1,3.448073E-2,9.314116E-2,2.3103757E-3],"split_indices":[11118,8442,12060,9111,7707,0,0,6294,11898,11331,5832,1239,7440,11112,11907,10383,0,0,5790,0,0,0,0,0,0,0,0,0,0,0,0],"split_type":[0,0,0,0,0,0,0,0,0,0,0,0,0,0,0,0,0,0,0,0,0,0,0,0,0,0,0,0,0,0,0],"sum_hessian":[4.2931708E2,4.09324E2,1.9993074E1,3.7334143E2,3.5982563E1,1.8950855E1,1.0422193E0,2.0025997E1,3.5331546E2,3.0221954E1,5.760609E0,1.1699099E1,8.326899E0,3.1822586E2,3.50896E1,2.822821E1,1.9937438E0,1.2907583E0,4.469851E0,8.583887E0,3.1152117E0,7.3263226E0,1.0005755E0,3.036986E2,1.4527249E1,3.0793459E1,4.2961407E0,2.7187687E1,1.0405241E0,3.4411762E0,1.0286747E0],"tree_param":{"num_deleted":"0","num_feature":"12292","num_nodes":"31","size_leaf_vector":"1"}},{"base_weights":[-9.4972353E-4,-5.1623773E-2,1.1348628E0,-1.0517027E-1,1.1243923E-1,-1.0547022E-2,1.21600166E-1,-1.8222009E-1,6.694878E-1,-2.3432022E-1,1.2039503E-1,1.13240264E-1,-8.02081E-1,-3.0468335E-2,8.8943556E-2,6.976576E-2,-1.18168436E-1],"categories":[],"categories_nodes":[],"categories_segments":[],"categories_sizes":[],"default_left":[0,0,0,0,0,0,0,0,0,0,0,0,0,0,0,0,0],"id":21,"left_children":[1,3,5,7,-1,-1,-1,9,11,13,-1,-1,15,-1,-1,-1,-1],"loss_changes":[2.440815E1,2.5681236E1,1.9510269E0,2.3351133E1,0E0,0E0,0E0,2.5902739E1,2.5037605E1,2.737224E1,0E0,0E0,5.983203E0,0E0,0E0,0E0,0E0],"parents":[2147483647,0,0,1,1,2,2,3,3,7,7,8,8,9,9,12,12],"right_children":[2,4,6,8,-1,-1,-1,10,12,14,-1,-1,16,-1,-1,-1,-1],"split_conditions":[1.68E2,8E0,7.3E1,9.6E1,1.1243923E-1,-1.0547022E-2,1.21600166E-1,1.52E2,2.24E2,2E0,1.2039503E-1,1.13240264E-1,1E0,-3.0468335E-2,8.8943556E-2,6.976576E-2,-1.18168436E-1],"split_indices":[1968,11154,3963,10935,0,0,0,9996,10563,11457,0,0,195,0,0,0,0],"split_type":[0,0,0,0,0,0,0,0,0,0,0,0,0,0,0,0,0],"sum_hessian":[4.2205704E2,4.0494504E2,1.7111992E1,3.881809E2,1.6764128E1,1.0322692E0,1.6079723E1,3.5375967E2,3.4421223E1,3.4174588E2,1.201379E1,2.6359678E1,8.061546E0,3.2229453E2,1.9451359E1,1.4590937E0,6.6024523E0],"tree_param":{"num_deleted":"0","num_feature":"12292","num_nodes":"17","size_leaf_vector":"1"}},{"base_weights":[1.0430227E-3,-5.069055E-2,1.0388792E0,3.001092E-2,-8.708301E-1,1.0785452E-1,1.4936337E-2,1.2642126E-1,-6.863346E-1,-1.4251627E0,-3.088259E-1,1.8223016E-1,-1.1753689E0,-1.5879303E0,-2.0632347E-1,-9.130687E-3,-1.5244396E-1,1.8757376E-1,-1.1372434E-1,2.8249964E-2,-6.1609358E-2,-1.4194633E-1,7.35153E-2,-1.8327975E-1,1.8716803E-2,1.6233027E-2,-1.0521914E-1,7.760382E-2,-9.023652E-2],"categories":[],"categories_nodes":[],"categories_segments":[],"categories_sizes":[],"default_left":[0,0,0,0,0,0,0,0,0,0,0,0,0,0,0,0,0,0,0,0,0,0,0,0,0,0,0,0,0],"id":22,"left_children":[1,3,5,7,9,-1,-1,11,13,15,17,19,21,23,25,-1,-1,27,-1,-1,-1,-1,-1,-1,-1,-1,-1,-1,-1],"loss_changes":[2.247067E1,2.6412445E1,5.400429E-1,2.5220118E1,1.0696602E1,0E0,0E0,2.35785E1,1.842201E1,2.2073135E0,8.037982E0,2.4927933E1,7.271366E0,6.8207245E0,9.345341E0,0E0,0E0,8.882188E0,0E0,0E0,0E0,0E0,0E0,0E0,0E0,0E0,0E0,0E0,0E0],"parents":[2147483647,0,0,1,1,2,2,3,3,4,4,7,7,8,8,9,9,10,10,11,11,12,12,13,13,14,14,17,17],"right_children":[2,4,6,8,10,-1,-1,12,14,16,18,20,22,24,26,-1,-1,28,-1,-1,-1,-1,-1,-1,-1,-1,-1,-1,-1],"split_conditions":[1.17E2,1.3E1,1.5E1,2.52E2,4.6E1,1.0785452E-1,1.4936337E-2,9.8E1,1.26E2,3E0,3.3E1,1E0,8.7E1,2.42E2,1.72E2,-9.130687E-3,-1.5244396E-1,8E0,-1.1372434E-1,2.8249964E-2,-6.1609358E-2,-1.4194633E-1,7.35153E-2,-1.8327975E-1,1.8716803E-2,1.6233027E-2,-1.0521914E-1,7.760382E-2,-9.023652E-2],"split_indices":[11307,8442,11934,6621,8826,0,0,11112,7764,3945,11319,12111,477,5619,4749,0,0,8451,0,0,0,0,0,0,0,0,0,0,0],"split_type":[0,0,0,0,0,0,0,0,0,0,0,0,0,0,0,0,0,0,0,0,0,0,0,0,0,0,0,0,0],"sum_hessian":[4.1653778E2,3.9766626E2,1.8871525E1,3.6291858E2,3.4747665E1,1.7862478E1,1.0090464E0,3.2059445E2,4.2324123E1,1.6720022E1,1.8027643E1,3.0823996E2,1.2354506E1,1.3902748E1,2.8421377E1,1.2912245E0,1.5428798E1,1.1756535E1,6.271109E0,2.7441904E2,3.3820904E1,1.1182786E1,1.1717196E0,1.2188844E1,1.7139041E0,2.0357206E1,8.06417E0,7.821604E0,3.934931E0],"tree_param":{"num_deleted":"0","num_feature":"12292","num_nodes":"29","size_leaf_vector":"1"}},{"base_weights":[-3.5132119E-4,3.6610696E-2,-1.40087E-1,9.051589E-2,-9.553209E-1,1.3650818E-1,-1.2269181E-1,-1.2106249E0,8.4732376E-2,2.196991E-1,-6.6198194E-1,-1.3077432E-1,1.8523492E-2,2.670387E-2,-1.36877E-1,-1.6247459E-1,-1.9972092E-2],"categories":[],"categories_nodes":[],"categories_segments":[],"categories_sizes":[],"default_left":[0,0,0,0,0,0,0,0,0,0,0,0,0,0,0,0,0],"id":23,"left_children":[1,3,-1,5,7,9,-1,11,-1,13,15,-1,-1,-1,-1,-1,-1],"loss_changes":[2.1331245E1,2.1553946E1,0E0,2.3295635E1,1.0589266E1,2.4705416E1,0E0,2.7656097E0,0E0,2.5601284E1,1.5312205E1,0E0,0E0,0E0,0E0,0E0,0E0],"parents":[2147483647,0,0,1,1,3,3,4,4,5,5,7,7,9,9,10,10],"right_children":[2,4,-1,6,8,10,-1,12,-1,14,16,-1,-1,-1,-1,-1,-1],"split_conditions":[9E0,3E0,-1.40087E-1,2.17E2,2E0,3E0,-1.2269181E-1,3.8E1,8.4732376E-2,1.2E1,1.64E2,-1.3077432E-1,1.8523492E-2,2.670387E-2,-1.36877E-1,-1.6247459E-1,-1.9972092E-2],"split_indices":[10143,10932,0,11334,10356,12090,0,11118,0,11952,12090,0,0,0,0,0,0],"split_type":[0,0,0,0,0,0,0,0,0,0,0,0,0,0,0,0,0],"sum_hessian":[4.1007996E2,4.0048434E2,9.595591E0,3.8070425E2,1.9780113E1,3.6872815E2,1.1976102E1,1.7613916E1,2.166197E0,3.345933E2,3.4134842E1,1.6527151E1,1.0867659E0,3.257181E2,8.875171E0,1.025717E1,2.3877672E1],"tree_param":{"num_deleted":"0","num_feature":"12292","num_nodes":"17","size_leaf_vector":"1"}},{"base_weights":[-2.0116004E-3,-5.3625822E-2,9.7368515E-1,-1.0129431E-1,1.05173245E-1,1.1200814E0,-6.6462554E-2,-1.4949602E-1,1.0739805E0,1.18713014E-1,1.28300255E-2,-8.8741995E-2,-1.2897012E0,1.12263076E-1,2.0862408E-2,-5.916312E-4,-8.854006E-2,-1.441858E-1,6.434312E-2],"categories":[],"categories_nodes":[],"categories_segments":[],"categories_sizes":[],"default_left":[0,0,0,0,0,0,0,0,0,0,0,0,0,0,0,0,0,0,0],"id":24,"left_children":[1,3,5,7,-1,9,-1,11,13,-1,-1,15,17,-1,-1,-1,-1,-1,-1],"loss_changes":[2.0501429E1,2.0477226E1,5.6500816E0,2.1208246E1,0E0,1.1209984E0,0E0,2.4669544E1,3.871765E-1,0E0,0E0,2.247889E1,6.229681E0,0E0,0E0,0E0,0E0,0E0,0E0],"parents":[2147483647,0,0,1,1,2,2,3,3,5,5,7,7,8,8,11,11,12,12],"right_children":[2,4,6,8,-1,10,-1,12,14,-1,-1,16,18,-1,-1,-1,-1,-1,-1],"split_conditions":[2.11E2,1.5E2,2E0,1.2E1,1.05173245E-1,2.54E2,-6.6462554E-2,1.58E2,1.2E1,1.18713014E-1,1.28300255E-2,1.3E1,2E0,1.12263076E-1,2.0862408E-2,-5.916312E-4,-8.854006E-2,-1.441858E-1,6.434312E-2],"split_indices":[864,11307,1293,11895,0,6582,0,11130,2529,0,0,8442,9750,0,0,0,0,0,0],"split_type":[0,0,0,0,0,0,0,0,0,0,0,0,0,0,0,0,0,0,0],"sum_hessian":[4.0506204E2,3.8560846E2,1.9453596E1,3.705374E2,1.5071035E1,1.8148224E1,1.3053713E0,3.5677765E2,1.3759775E1,1.6814524E1,1.3337004E0,3.3975232E2,1.7025333E1,1.2745895E1,1.0138793E0,3.0866858E2,3.108372E1,1.6018642E1,1.0066913E0],"tree_param":{"num_deleted":"0","num_feature":"12292","num_nodes":"19","size_leaf_vector":"1"}},{"base_weights":[-1.2616316E-3,-2.1016175E-1,2.310979E-1,-8.6857446E-2,-1.0249794E0,2.8453982E-1,-1.2869762E0,-2.9586014E-1,3.621374E-1,-1.1424899E0,3.9984476E-2,3.4035793E-1,-1.17940605E-1,-1.4339845E-1,-2.6131481E-2,-6.193314E-1,1.33192E-1,5.192412E-1,-7.6947236E-1,-1.2968605E0,2.1129401E-1,4.015482E-1,-9.02105E-1,-7.311777E-2,8.473603E-2,-6.192278E-3,1.0826273E-1,6.649252E-2,-5.280254E-2,9.336334E-2,-1.2301455E-1,2.4667105E-3,-1.4003345E-1,1.0000098E-1,-7.939351E-2,4.602639E-2,-1.01501904E-1,-1.187426E-1,6.1931323E-2],"categories":[],"categories_nodes":[],"categories_segments":[],"categories_sizes":[],"default_left":[0,0,0,0,0,0,0,0,0,0,0,0,0,0,0,0,0,0,0,0,0,0,0,0,0,0,0,0,0,0,0,0,0,0,0,0,0,0,0],"id":25,"left_children":[1,3,5,7,9,11,13,15,17,19,-1,21,-1,-1,-1,23,25,27,29,31,33,35,37,-1,-1,-1,-1,-1,-1,-1,-1,-1,-1,-1,-1,-1,-1,-1,-1],"loss_changes":[1.952255E1,2.118922E1,1.5813857E1,1.7471691E1,5.102049E0,1.5498441E1,6.289091E-1,1.7682869E1,1.0928637E1,5.6845093E0,0E0,1.39515E1,0E0,0E0,0E0,1.2509747E1,1.0317781E1,8.376643E0,7.129263E0,3.2315483E0,3.57671E0,1.4693844E1,4.5110345E0,0E0,0E0,0E0,0E0,0E0,0E0,0E0,0E0,0E0,0E0,0E0,0E0,0E0,0E0,0E0,0E0],"parents":[2147483647,0,0,1,1,2,2,3,3,4,4,5,5,6,6,7,7,8,8,9,9,11,11,15,15,16,16,17,17,18,18,19,19,20,20,21,21,22,22],"right_children":[2,4,6,8,10,12,14,16,18,20,-1,22,-1,-1,-1,24,26,28,30,32,34,36,38,-1,-1,-1,-1,-1,-1,-1,-1,-1,-1,-1,-1,-1,-1,-1,-1],"split_conditions":[1.14E2,1.5E1,1.71E2,1.38E2,3E0,6E0,1.42E2,1.36E2,3E0,2.54E2,3.9984476E-2,2.4E2,-1.17940605E-1,-1.4339845E-1,-2.6131481E-2,1.41E2,6E0,2.1E1,2E0,2E0,1.15E2,2.14E2,2.52E2,-7.311777E-2,8.473603E-2,-6.192278E-3,1.0826273E-1,6.649252E-2,-5.280254E-2,9.336334E-2,-1.2301455E-1,2.4667105E-3,-1.4003345E-1,1.0000098E-1,-7.939351E-2,4.602639E-2,-1.01501904E-1,-1.187426E-1,6.1931323E-2],"split_indices":[2769,4575,11511,10110,4824,8811,8979,5121,11334,2559,0,9978,0,0,0,11127,10626,8034,10656,5337,4485,8451,10746,0,0,0,0,0,0,0,0,0,0,0,0,0,0,0,0],"split_type":[0,0,0,0,0,0,0,0,0,0,0,0,0,0,0,0,0,0,0,0,0,0,0,0,0,0,0,0,0,0,0,0,0,0,0,0,0,0,0],"sum_hessian":[4.001951E2,2.1078598E2,1.8940912E2,1.8404198E2,2.6744009E1,1.837529E2,5.656227E0,1.2581663E2,5.8225346E1,2.4889439E1,1.8545704E0,1.7774332E2,6.0095835E0,4.5989513E0,1.0572758E0,7.148165E1,5.433498E1,5.1602417E1,6.622927E0,2.2379568E1,2.5098717E0,1.7004552E2,7.697792E0,6.688281E1,4.5988374E0,4.5847763E1,8.487217E0,4.5621197E1,5.9812217E0,1.1914546E0,5.4314723E0,1.6803557E0,2.0699213E1,1.409305E0,1.1005667E0,1.63926E2,6.1195307E0,6.667013E0,1.0307791E0],"tree_param":{"num_deleted":"0","num_feature":"12292","num_nodes":"39","size_leaf_vector":"1"}},{"base_weights":[-2.112693E-3,2.966607E-2,-1.496629E0,1.0067917E-1,-6.9750106E-1,-1.6357185E-1,-2.7788391E-2,1.5820003E-1,-9.081025E-1,-9.4380546E-1,9.823719E-2,6.6080123E-1,8.231287E-3,-1.1587206E0,8.162749E-2,-1.0964022E0,1.03591E-1,8.524102E-2,-1.2740688E-1,1.4473617E-2,-8.150345E-2,-1.2503336E-1,1.5918016E-2,-1.2692347E-1,6.66904E-2],"categories":[],"categories_nodes":[],"categories_segments":[],"categories_sizes":[],"default_left":[0,0,0,0,0,0,0,0,0,0,0,0,0,0,0,0,0,0,0,0,0,0,0,0,0],"id":26,"left_children":[1,3,5,7,9,-1,-1,11,13,15,-1,17,19,21,-1,23,-1,-1,-1,-1,-1,-1,-1,-1,-1],"loss_changes":[1.8783224E1,2.0070704E1,9.4130135E-1,2.0669353E1,1.5237198E1,0E0,0E0,2.5282883E1,9.256358E0,1.0401976E1,0E0,2.9666279E1,2.927068E1,2.2760963E0,0E0,9.6733055E0,0E0,0E0,0E0,0E0,0E0,0E0,0E0,0E0,0E0],"parents":[2147483647,0,0,1,1,2,2,3,3,4,4,7,7,8,8,9,9,11,11,12,12,13,13,15,15],"right_children":[2,4,6,8,10,-1,-1,12,14,16,-1,18,20,22,-1,24,-1,-1,-1,-1,-1,-1,-1,-1,-1],"split_conditions":[3E0,1E1,8E0,3E0,2.49E2,-1.6357185E-1,-2.7788391E-2,1E0,2E0,1E0,9.823719E-2,2E0,1E1,3.8E1,8.162749E-2,2.55E2,1.03591E-1,8.524102E-2,-1.2740688E-1,1.4473617E-2,-8.150345E-2,-1.2503336E-1,1.5918016E-2,-1.2692347E-1,6.66904E-2],"split_indices":[5001,11898,8853,10932,11907,0,0,10602,10356,9405,0,6894,11721,11118,0,9846,0,0,0,0,0,0,0,0,0],"split_type":[0,0,0,0,0,0,0,0,0,0,0,0,0,0,0,0,0,0,0,0,0,0,0,0,0],"sum_hessian":[3.9355237E2,3.8631802E2,7.2343526E0,3.527327E2,3.3585335E1,6.186217E0,1.0481358E0,3.3450247E2,1.8230198E1,2.9672846E1,3.91249E0,7.609006E1,2.584124E2,1.6203278E1,2.0269215E0,2.7963593E1,1.7092545E0,6.974291E1,6.347149E0,2.2236629E2,3.6046143E1,1.5198064E1,1.0052136E0,2.572256E1,2.2410312E0],"tree_param":{"num_deleted":"0","num_feature":"12292","num_nodes":"25","size_leaf_vector":"1"}},{"base_weights":[-2.664177E-3,-4.5813303E-2,1.07119314E-1,-3.0286391E-3,-1.3280534E0,-5.148502E-2,1.1573904E-1,-1.447196E-1,-1.1216572E-3,-9.8370075E-2,1.0912519E-1,-1.5079445E-2,1.04691505E-1],"categories":[],"categories_nodes":[],"categories_segments":[],"categories_sizes":[],"default_left":[0,0,0,0,0,0,0,0,0,0,0,0,0],"id":27,"left_children":[1,3,-1,5,7,9,-1,-1,-1,11,-1,-1,-1],"loss_changes":[1.7937664E1,2.0409908E1,0E0,2.0363861E1,1.8684978E0,1.8729652E1,0E0,0E0,0E0,2.025937E1,0E0,0E0,0E0],"parents":[2147483647,0,0,1,1,3,3,4,4,5,5,9,9],"right_children":[2,4,-1,6,8,10,-1,-1,-1,12,-1,-1,-1],"split_conditions":[8E0,3.2E1,1.07119314E-1,1.8E1,1.1E2,2.01E2,1.1573904E-1,-1.447196E-1,-1.1216572E-3,2E0,1.0912519E-1,-1.5079445E-2,1.04691505E-1],"split_indices":[11154,12060,0,9996,3411,1968,0,0,0,11496,0,0,0],"split_type":[0,0,0,0,0,0,0,0,0,0,0,0,0],"sum_hessian":[3.850624E2,3.711081E2,1.3954317E1,3.600951E2,1.1012977E1,3.4657843E2,1.3516672E1,1.0008454E1,1.0045226E0,3.337971E2,1.2781357E1,3.2001694E2,1.3780145E1],"tree_param":{"num_deleted":"0","num_feature":"12292","num_nodes":"13","size_leaf_vector":"1"}},{"base_weights":[-1.2139747E-3,-4.0968522E-2,1.067924E0,1.3643749E-2,-1.3821852E-1,2.4856605E-2,1.1138493E-1,8.4332824E-2,-7.773142E-1,1.8010491E-1,-6.1337364E-1,-1.0311921E0,4.752322E-1,2.6735976E-2,-6.120525E-2,-1.3178079E-1,-6.082966E-3,-1.1438695E-1,6.60555E-2,-4.7312655E-2,8.2914524E-2],"categories":[],"categories_nodes":[],"categories_segments":[],"categories_sizes":[],"default_left":[0,0,0,0,0,0,0,0,0,0,0,0,0,0,0,0,0,0,0,0,0],"id":28,"left_children":[1,3,5,7,-1,-1,-1,9,11,13,15,17,19,-1,-1,-1,-1,-1,-1,-1,-1],"loss_changes":[1.628467E1,2.7074465E1,2.4000454E-1,1.9965433E1,0E0,0E0,0E0,2.20021E1,9.806274E0,2.0128616E1,1.5399556E1,5.4591694E0,2.2792165E0,0E0,0E0,0E0,0E0,0E0,0E0,0E0,0E0],"parents":[2147483647,0,0,1,1,2,2,3,3,7,7,8,8,9,9,10,10,11,11,12,12],"right_children":[2,4,6,8,-1,-1,-1,10,12,14,16,18,20,-1,-1,-1,-1,-1,-1,-1,-1],"split_conditions":[2.45E2,1.5E1,2E0,1.3E1,-1.3821852E-1,2.4856605E-2,1.1138493E-1,2.52E2,2E0,1E1,1.36E2,3.4E1,1.04E2,2.6735976E-2,-6.120525E-2,-1.3178079E-1,-6.082966E-3,-1.1438695E-1,6.60555E-2,-4.7312655E-2,8.2914524E-2],"split_indices":[9975,11352,4875,8442,0,0,0,6621,7707,11898,7572,10938,6030,0,0,0,0,0,0,0,0],"split_type":[0,0,0,0,0,0,0,0,0,0,0,0,0,0,0,0,0,0,0,0,0],"sum_hessian":[3.811114E2,3.683755E2,1.2735896E1,3.549138E2,1.3461713E1,1.0163027E0,1.1719594E1,3.2661694E2,2.8296856E1,2.878469E2,3.8770023E1,2.3674923E1,4.6219325E0,2.5988364E2,2.7963274E1,1.6433764E1,2.2336262E1,2.250017E1,1.1747533E0,1.1645408E0,3.4573917E0],"tree_param":{"num_deleted":"0","num_feature":"12292","num_nodes":"21","size_leaf_vector":"1"}},{"base_weights":[-1.7130998E-3,-3.4777856E-1,1.2016357E-1,1.5696988E-2,-7.364204E-1,1.60351E-1,-1.1575407E-1,-8.221566E-1,3.2793763E-1,-3.8921866E-1,-1.3481673E0,2.3807883E-1,-5.706111E-1,-1.1696346E0,5.423029E-1,4.3300527E-1,-1.21867076E-1,-5.413842E-1,7.895284E-2,-1.6249615E0,3.0220935E-1,3.348491E-1,-4.9836662E-1,-8.3985543E-1,9.5292255E-2,-1.0107947E-2,-1.3996638E-1,7.8048125E-2,-3.7678417E-3,-5.7442337E-2,6.1594892E-2,-7.328784E-2,3.263789E-2,-1.6290337E-2,-1.8041915E-1,6.9890454E-2,-2.9613862E-2,4.0230986E-2,-9.149933E-2,-9.946769E-2,8.36313E-2,-1.04126535E-1,1.04140066E-1],"categories":[],"categories_nodes":[],"categories_segments":[],"categories_sizes":[],"default_left":[0,0,0,0,0,0,0,0,0,0,0,0,0,0,0,0,0,0,0,0,0,0,0,0,0,0,0,0,0,0,0,0,0,0,0,0,0,0,0,0,0,0,0],"id":29,"left_children":[1,3,5,7,9,11,-1,13,15,17,19,21,23,25,27,29,-1,31,-1,33,35,37,39,41,-1,-1,-1,-1,-1,-1,-1,-1,-1,-1,-1,-1,-1,-1,-1,-1,-1,-1,-1],"loss_changes":[1.5921807E1,1.3900244E1,1.4521231E1,1.3816775E1,9.571756E0,1.5564396E1,0E0,7.435014E0,6.774056E0,6.1187415E0,8.1678505E0,1.7709538E1,1.1627561E1,2.7464733E0,5.259688E-1,7.1236444E0,0E0,5.007619E0,0E0,3.5183601E0,9.800221E-1,1.8762903E1,2.0035791E1,9.784889E0,0E0,0E0,0E0,0E0,0E0,0E0,0E0,0E0,0E0,0E0,0E0,0E0,0E0,0E0,0E0,0E0,0E0,0E0,0E0],"parents":[2147483647,0,0,1,1,2,2,3,3,4,4,5,5,7,7,8,8,9,9,10,10,11,11,12,12,13,13,14,14,15,15,17,17,19,19,20,20,21,21,22,22,23,23],"right_children":[2,4,6,8,10,12,-1,14,16,18,20,22,24,26,28,30,-1,32,-1,34,36,38,40,42,-1,-1,-1,-1,-1,-1,-1,-1,-1,-1,-1,-1,-1,-1,-1,-1,-1,-1,-1],"split_conditions":[1.04E2,1.23E2,2.17E2,9.4E1,1.42E2,1E1,-1.1575407E-1,2.1E2,2E0,2E0,8.2E1,2E0,2.49E2,9.1E1,1.15E2,7E0,-1.21867076E-1,1E1,7.895284E-2,1E0,1.27E2,8.4E1,2.42E2,1E0,9.5292255E-2,-1.0107947E-2,-1.3996638E-1,7.8048125E-2,-3.7678417E-3,-5.7442337E-2,6.1594892E-2,-7.328784E-2,3.263789E-2,-1.6290337E-2,-1.8041915E-1,6.9890454E-2,-2.9613862E-2,4.0230986E-2,-9.149933E-2,-9.946769E-2,8.36313E-2,-1.04126535E-1,1.04140066E-1],"split_indices":[5118,9711,11334,8325,6234,11898,0,3903,9036,11814,3123,12273,11907,7008,9684,4497,0,8868,0,3333,8157,11112,11718,10557,0,0,0,0,0,0,0,0,0,0,0,0,0,0,0,0,0,0,0],"split_type":[0,0,0,0,0,0,0,0,0,0,0,0,0,0,0,0,0,0,0,0,0,0,0,0,0,0,0,0,0,0,0,0,0,0,0,0,0,0,0,0,0,0,0],"sum_hessian":[3.7550623E2,9.731876E1,2.7818747E2,5.0783413E1,4.6535347E1,2.7055234E2,7.6351385E0,1.3343888E1,3.7439526E1,3.0730341E1,1.5805006E1,2.4515747E2,2.5394855E1,1.0749236E1,2.5946522E0,3.573212E1,1.7074047E0,2.769578E1,3.0345619E0,1.3548164E1,2.2568412E0,2.171667E2,2.7990776E1,2.1962337E1,3.432518E0,2.159079E0,8.590157E0,1.5942485E0,1.0004035E0,5.162658E0,3.0569462E1,2.2816233E1,4.879547E0,1.6879249E0,1.186024E1,1.2560458E0,1.0007952E0,2.066887E2,1.0477997E1,2.0589256E1,7.4015193E0,2.0241734E1,1.7206037E0],"tree_param":{"num_deleted":"0","num_feature":"12292","num_nodes":"43","size_leaf_vector":"1"}},{"base_weights":[-2.770878E-3,3.919133E-2,-9.925726E-1,-2.229918E-2,1.0276587E0,-1.15065925E-1,5.6154784E-2,2.1651393E-2,-1.195902E0,1.07670836E-1,2.9995085E-3,1.4101769E-1,-4.6689743E-1,-1.2943672E-1,-6.5100165E-3,2.0485118E-2,-1.0463144E-1,-6.3782744E-2,9.559892E-2],"categories":[],"categories_nodes":[],"categories_segments":[],"categories_sizes":[],"default_left":[0,0,0,0,0,0,0,0,0,0,0,0,0,0,0,0,0,0,0],"id":30,"left_children":[1,3,5,7,9,-1,-1,11,13,-1,-1,15,17,-1,-1,-1,-1,-1,-1],"loss_changes":[1.5363418E1,2.1595259E1,4.342182E0,1.7311049E1,9.858875E-1,0E0,0E0,1.8960066E1,1.2646103E0,0E0,0E0,2.0007004E1,1.613889E1,0E0,0E0,0E0,0E0,0E0,0E0],"parents":[2147483647,0,0,1,1,2,2,3,3,4,4,7,7,8,8,11,11,12,12],"right_children":[2,4,6,8,10,-1,-1,12,14,-1,-1,16,18,-1,-1,-1,-1,-1,-1],"split_conditions":[2.39E2,1E1,2E0,2.39E2,2.55E2,-1.15065925E-1,5.6154784E-2,1.6E1,2.06E2,1.07670836E-1,2.9995085E-3,1.95E2,3E0,-1.2943672E-1,-6.5100165E-3,2.0485118E-2,-1.0463144E-1,-6.3782744E-2,9.559892E-2],"split_indices":[10566,10737,243,10182,5013,0,0,5922,10359,0,0,10563,11523,0,0,0,0,0,0],"split_type":[0,0,0,0,0,0,0,0,0,0,0,0,0,0,0,0,0,0,0],"sum_hessian":[3.679608E2,3.5391705E2,1.4043754E1,3.3411017E2,1.9806864E1,1.2982744E1,1.0610093E0,3.229958E2,1.1114406E1,1.8803185E1,1.0036802E0,2.601461E2,6.2849693E1,1.0091075E1,1.0233302E0,2.4765889E2,1.2487198E1,5.6601902E1,6.2477922E0],"tree_param":{"num_deleted":"0","num_feature":"12292","num_nodes":"19","size_leaf_vector":"1"}},{"base_weights":[-2.9780597E-3,-8.1418633E-1,4.7422014E-2,-2.2718112E-1,-1.5734348E0,8.1785515E-2,-1.2528639E-1,-5.9521323E-1,8.825064E-2,-1.7942123E0,-2.3341281E-3,1.20413214E-1,-1.1260577E-1,-9.2662203E-1,1.2200573E-1,-7.336097E-2,-1.9787522E-1,1.6729966E-1,-9.5499194E-1,2.7296567E-2,-1.20271266E-1,-5.331067E-2,7.646375E-2,2.0745661E-2,-1.09858386E-1,-1.1174227E-1,5.4623116E-2],"categories":[],"categories_nodes":[],"categories_segments":[],"categories_sizes":[],"default_left":[0,0,0,0,0,0,0,0,0,0,0,0,0,0,0,0,0,0,0,0,0,0,0,0,0,0,0],"id":31,"left_children":[1,3,5,7,9,11,-1,13,-1,15,-1,17,-1,19,21,-1,-1,23,25,-1,-1,-1,-1,-1,-1,-1,-1],"loss_changes":[1.4867778E1,9.12292E0,1.5403192E1,5.9020004E0,3.074524E0,1.5744667E1,0E0,2.6049395E0,0E0,1.0589218E-1,0E0,1.6551476E1,0E0,2.7416286E0,2.174515E0,0E0,0E0,1.6106441E1,3.9584875E0,0E0,0E0,0E0,0E0,0E0,0E0,0E0,0E0],"parents":[2147483647,0,0,1,1,2,2,3,3,4,4,5,5,7,7,9,9,11,11,13,13,14,14,17,17,18,18],"right_children":[2,4,6,8,10,12,-1,14,-1,16,-1,18,-1,20,22,-1,-1,24,26,-1,-1,-1,-1,-1,-1,-1,-1],"split_conditions":[8E0,4.6E1,4E0,1.48E2,2E0,2.17E2,-1.2528639E-1,2.55E2,8.825064E-2,1E1,-2.3341281E-3,2.39E2,-1.1260577E-1,9.4E1,1.43E2,-7.336097E-2,-1.9787522E-1,5.3E1,2E0,2.7296567E-2,-1.20271266E-1,-5.331067E-2,7.646375E-2,2.0745661E-2,-1.09858386E-1,-1.1174227E-1,5.4623116E-2],"split_indices":[9111,6294,10332,1428,11514,11334,0,4521,0,6204,0,10566,0,6444,5676,0,0,10575,243,0,0,0,0,0,0,0,0],"split_type":[0,0,0,0,0,0,0,0,0,0,0,0,0,0,0,0,0,0,0,0,0,0,0,0,0,0,0],"sum_hessian":[3.6170474E2,2.0271578E1,3.4143317E2,1.2165311E1,8.106267E0,3.3355518E2,7.877977E0,9.4836445E0,2.6816664E0,6.957792E0,1.148475E0,3.2409085E2,9.464352E0,6.2867365E0,3.1969078E0,1.7685837E0,5.1892085E0,3.1136032E2,1.2730525E1,1.1783284E0,5.108408E0,1.6674777E0,1.52943E0,3.025973E2,8.763016E0,1.1718278E1,1.012247E0],"tree_param":{"num_deleted":"0","num_feature":"12292","num_nodes":"27","size_leaf_vector":"1"}},{"base_weights":[-4.8398455E-3,-5.2953783E-2,8.415279E-1,-1.2042092E-1,6.3400525E-1,1.0930656E0,-8.1871516E-1,-1.9251098E-1,6.8104714E-1,1.08062126E-1,-7.4241626E-1,1.141325E-1,2.2413014E-2,-1.005247E-1,-2.129415E-2,-8.7610595E-2,-1.1318338E0,1.1750519E0,-1.15684785E-1,6.522008E-2,-1.1089654E-1,6.027285E-3,-6.504322E-2,-1.2917636E-1,8.2910895E-2,2.6690716E-2,1.2092234E-1],"categories":[],"categories_nodes":[],"categories_segments":[],"categories_sizes":[],"default_left":[0,0,0,0,0,0,0,0,0,0,0,0,0,0,0,0,0,0,0,0,0,0,0,0,0,0,0],"id":32,"left_children":[1,3,5,7,9,11,13,15,17,-1,19,-1,-1,-1,-1,21,23,25,-1,-1,-1,-1,-1,-1,-1,-1,-1],"loss_changes":[1.4619143E1,1.5815514E1,8.959344E0,1.8045952E1,1.9569342E1,4.6539116E-1,1.3764334E-1,2.8008602E1,2.4791449E1,0E0,4.8495684E0,0E0,0E0,0E0,0E0,2.1486712E1,1.0031654E1,3.2387733E-1,0E0,0E0,0E0,0E0,0E0,0E0,0E0,0E0,0E0],"parents":[2147483647,0,0,1,1,2,2,3,3,4,4,5,5,6,6,7,7,8,8,10,10,15,15,16,16,17,17],"right_children":[2,4,6,8,10,12,14,16,18,-1,20,-1,-1,-1,-1,22,24,26,-1,-1,-1,-1,-1,-1,-1,-1,-1],"split_conditions":[2E0,9.6E1,1.58E2,3.7E1,2.24E2,2.55E2,1.73E2,1E0,2.29E2,1.08062126E-1,1E0,1.141325E-1,2.2413014E-2,-1.005247E-1,-2.129415E-2,1.5E2,2E0,1E0,-1.15684785E-1,6.522008E-2,-1.1089654E-1,6.027285E-3,-6.504322E-2,-1.2917636E-1,8.2910895E-2,2.6690716E-2,1.2092234E-1],"split_indices":[11457,10935,3804,11514,10563,8028,7452,12273,11916,0,195,0,0,0,0,6621,10698,7644,0,0,0,0,0,0,0,0,0],"split_type":[0,0,0,0,0,0,0,0,0,0,0,0,0,0,0,0,0,0,0,0,0,0,0,0,0,0,0],"sum_hessian":[3.5690363E2,3.385929E2,1.8310745E1,3.0906403E2,2.9528872E1,1.6198229E1,2.1125152E0,2.842557E2,2.4808292E1,2.2457012E1,7.07186E0,1.5048957E1,1.1492728E0,1.1109761E0,1.001539E0,2.5668344E2,2.7572268E1,1.9836994E1,4.9712996E0,1.309662E0,5.762198E0,2.0397989E2,5.270356E1,2.580863E1,1.7636374E0,1.0388643E0,1.879813E1],"tree_param":{"num_deleted":"0","num_feature":"12292","num_nodes":"27","size_leaf_vector":"1"}},{"base_weights":[-3.9656293E-3,-4.8648246E-2,9.122987E-1,-1.5158363E-2,-1.3834325E0,1.0356461E0,-4.280999E-2,-6.0214255E-2,1.0203557E0,2.8703192E-2,-1.6625543E-1,1.09774195E-1,1.2423421E-2,-1.0037642E-1,1.04598776E-1,1.0951082E-1,4.921991E-3,-2.548245E-3,-1.2086808E-1],"categories":[],"categories_nodes":[],"categories_segments":[],"categories_sizes":[],"default_left":[0,0,0,0,0,0,0,0,0,0,0,0,0,0,0,0,0,0,0],"id":33,"left_children":[1,3,5,7,9,11,-1,13,15,-1,-1,-1,-1,17,-1,-1,-1,-1,-1],"loss_changes":[1.4451283E1,1.5020296E1,3.1570225E0,1.5423198E1,4.3120384E0,7.307987E-1,0E0,1.4165007E1,9.4678116E-1,0E0,0E0,0E0,0E0,2.5393417E1,0E0,0E0,0E0,0E0,0E0],"parents":[2147483647,0,0,1,1,2,2,3,3,4,4,5,5,7,7,8,8,13,13],"right_children":[2,4,6,8,10,12,-1,14,16,-1,-1,-1,-1,18,-1,-1,-1,-1,-1],"split_conditions":[2.11E2,4.8E1,2E0,2E0,1.04E2,2.54E2,-4.280999E-2,2.44E2,2E1,2.8703192E-2,-1.6625543E-1,1.09774195E-1,1.2423421E-2,3E0,1.04598776E-1,1.0951082E-1,4.921991E-3,-2.548245E-3,-1.2086808E-1],"split_indices":[864,11952,1488,10728,6987,6582,0,11907,7866,0,0,0,0,11907,0,0,0,0,0],"split_type":[0,0,0,0,0,0,0,0,0,0,0,0,0,0,0,0,0,0,0],"sum_hessian":[3.508935E2,3.3548032E2,1.5413154E1,3.282557E2,7.2246146E0,1.4322513E1,1.0906408E0,3.154712E2,1.2784507E1,1.0302887E0,6.194326E0,1.3217541E1,1.1049722E0,3.0529626E2,1.0174935E1,1.1752232E1,1.0322759E0,2.869299E2,1.8366373E1],"tree_param":{"num_deleted":"0","num_feature":"12292","num_nodes":"19","size_leaf_vector":"1"}},{"base_weights":[-3.380968E-3,-1.9652405E-1,1.9740278E-1,-8.521542E-2,-9.480722E-1,2.4988645E-1,-1.1792197E0,-1.0868987E0,7.186174E-3,-1.0935264E0,2.6917174E-1,-7.1556187E-1,3.1665516E-1,-2.026593E-2,-1.3223074E-1,-1.4212636E0,3.7256593E-1,9.489383E-1,-6.388822E-2,-1.2250705E0,3.711521E-2,8.550324E-2,-4.5206565E-2,7.4743204E-2,-1.0407088E0,3.999779E-1,-4.340747E-1,-2.3247E-2,-1.8601948E-1,7.62131E-2,-2.5179928E-2,1.1842016E-1,2.7410693E-3,9.076342E-3,-6.256032E-2,-1.3211943E-1,8.42917E-3,-1.4443755E-1,9.068574E-3,4.8468955E-2,-3.9304372E-2,-7.2969906E-2,7.886476E-2],"categories":[],"categories_nodes":[],"categories_segments":[],"categories_sizes":[],"default_left":[0,0,0,0,0,0,0,0,0,0,0,0,0,0,0,0,0,0,0,0,0,0,0,0,0,0,0,0,0,0,0,0,0,0,0,0,0,0,0,0,0,0,0],"id":34,"left_children":[1,3,5,7,9,11,13,15,17,19,21,23,25,-1,-1,27,29,31,33,35,-1,-1,-1,-1,37,39,41,-1,-1,-1,-1,-1,-1,-1,-1,-1,-1,-1,-1,-1,-1,-1,-1],"loss_changes":[1.3533722E1,1.4798655E1,1.26579485E1,1.4448845E1,4.3393745E0,1.0905215E1,6.345787E-1,6.9630184E0,9.688436E0,4.424711E0,1.7560371E0,6.021055E0,9.909098E0,0E0,0E0,5.272848E0,9.82329E-1,2.1695738E0,1.1756666E1,2.5203152E0,0E0,0E0,0E0,0E0,4.440506E0,9.6363125E0,6.3689756E0,0E0,0E0,0E0,0E0,0E0,0E0,0E0,0E0,0E0,0E0,0E0,0E0,0E0,0E0,0E0,0E0],"parents":[2147483647,0,0,1,1,2,2,3,3,4,4,5,5,6,6,7,7,8,8,9,9,10,10,11,11,12,12,15,15,16,16,17,17,18,18,19,19,24,24,25,25,26,26],"right_children":[2,4,6,8,10,12,14,16,18,20,22,24,26,-1,-1,28,30,32,34,36,-1,-1,-1,-1,38,40,42,-1,-1,-1,-1,-1,-1,-1,-1,-1,-1,-1,-1,-1,-1,-1,-1],"split_conditions":[1.11E2,1.5E1,1.86E2,6.6E1,2.54E2,1E0,1.02E2,7.2E1,1.4E1,3E0,1.31E2,2.5E1,1.5E1,-2.026593E-2,-1.3223074E-1,6.7E1,1.7E1,1.63E2,1.62E2,2.55E2,3.711521E-2,8.550324E-2,-4.5206565E-2,7.4743204E-2,6.1E1,1.2E1,3.6E1,-2.3247E-2,-1.8601948E-1,7.62131E-2,-2.5179928E-2,1.1842016E-1,2.7410693E-3,9.076342E-3,-6.256032E-2,-1.3211943E-1,8.42917E-3,-1.4443755E-1,9.068574E-3,4.8468955E-2,-3.9304372E-2,-7.2969906E-2,7.886476E-2],"split_indices":[2769,4575,11511,8544,2559,2598,3906,3600,5682,4824,4677,6660,8442,0,0,4533,2634,10056,6234,7362,0,0,0,0,2619,7080,11118,0,0,0,0,0,0,0,0,0,0,0,0,0,0,0,0],"split_type":[0,0,0,0,0,0,0,0,0,0,0,0,0,0,0,0,0,0,0,0,0,0,0,0,0,0,0,0,0,0,0,0,0,0,0,0,0,0,0,0,0,0,0],"sum_hessian":[3.4698685E2,1.7686934E2,1.7011751E2,1.5502293E2,2.1846407E1,1.646584E2,5.4591165E0,1.2183579E1,1.4283936E2,1.9605314E1,2.241093E0,1.0022346E1,1.5463605E2,1.006458E0,4.452658E0,9.933889E0,2.2496898E0,9.156906E0,1.3368245E2,1.8139757E1,1.4655577E0,1.1342417E0,1.1068513E0,1.5862561E0,8.4360895E0,1.3960829E2,1.5027763E1,3.0912447E0,6.8426447E0,1.2494569E0,1.0002328E0,7.0675416E0,2.0893643E0,1.0548005E2,2.8202402E1,1.6890726E1,1.2490306E0,6.0138087E0,2.4222813E0,1.2648572E2,1.3122568E1,1.2426546E1,2.6012175E0],"tree_param":{"num_deleted":"0","num_feature":"12292","num_nodes":"43","size_leaf_vector":"1"}},{"base_weights":[-4.0274756E-3,-4.052804E-2,1.0137998E-1,-3.12915E-3,-1.2106296E0,8.690343E-2,-4.6832898E-1,-1.3187157E-1,-1.0584499E-2,1.490943E-1,-9.4893193E-1,-7.3591495E-1,3.826256E-1,7.5379345E-3,1.0386002E-1,-1.2192159E-1,7.1617156E-2,-8.897071E-2,8.872878E-2,9.646052E-2,-6.0008932E-2],"categories":[],"categories_nodes":[],"categories_segments":[],"categories_sizes":[],"default_left":[0,0,0,0,0,0,0,0,0,0,0,0,0,0,0,0,0,0,0,0,0],"id":35,"left_children":[1,3,-1,5,7,9,11,-1,-1,13,15,17,19,-1,-1,-1,-1,-1,-1,-1,-1],"loss_changes":[1.2805839E1,1.4553368E1,0E0,1.3583809E1,1.090415E0,1.7648464E1,1.2256382E1,0E0,0E0,1.6788715E1,7.861661E0,1.08624E1,8.150372E0,0E0,0E0,0E0,0E0,0E0,0E0,0E0,0E0],"parents":[2147483647,0,0,1,1,3,3,4,4,5,5,6,6,9,9,10,10,11,11,12,12],"right_children":[2,4,-1,6,8,10,12,-1,-1,14,16,18,20,-1,-1,-1,-1,-1,-1,-1,-1],"split_conditions":[8E0,1E0,1.0137998E-1,6E0,2E0,6.1E1,2.53E2,-1.3187157E-1,-1.0584499E-2,9.6E1,2.09E2,1E1,5E0,7.5379345E-3,1.0386002E-1,-1.2192159E-1,7.1617156E-2,-8.897071E-2,8.872878E-2,9.646052E-2,-6.0008932E-2],"split_indices":[11154,12249,0,4575,1224,11145,2250,0,0,10935,10179,11514,5736,0,0,0,0,0,0,0,0],"split_type":[0,0,0,0,0,0,0,0,0,0,0,0,0,0,0,0,0,0,0,0,0],"sum_hessian":[3.4258853E2,3.3165515E2,1.0933389E1,3.223547E2,9.300455E0,2.7076526E2,5.158944E1,8.295254E0,1.0052016E0,2.5623703E2,1.4528238E1,3.935066E1,1.2238779E1,2.3762901E2,1.8608004E1,1.2729704E1,1.798535E0,3.635778E1,2.9928782E0,7.698206E0,4.540573E0],"tree_param":{"num_deleted":"0","num_feature":"12292","num_nodes":"21","size_leaf_vector":"1"}},{"base_weights":[-3.4583337E-3,-4.8956312E-2,8.3010256E-1,-1.7326455E-1,2.8778678E-1,1.0381289E0,-9.418889E-2,-2.2405925E-1,1.01283364E-1,4.7186282E-1,-4.8109564E-1,1.1128185E-1,1.726122E-2,-2.742783E-1,1.0487125E-1,7.186409E-1,-1.2107798E-1,1.7022793E-1,-1.0354841E0,-3.3633783E-2,7.821264E-2,8.715223E-2,-5.5684377E-2,-6.517703E-2,7.689565E-2,-6.042425E-2,5.8031213E-2,-6.4341906E-3,-1.2688205E-1],"categories":[],"categories_nodes":[],"categories_segments":[],"categories_sizes":[],"default_left":[0,0,0,0,0,0,0,0,0,0,0,0,0,0,0,0,0,0,0,0,0,0,0,0,0,0,0,0,0],"id":36,"left_children":[1,3,5,7,9,11,-1,13,-1,15,17,-1,-1,19,-1,21,23,25,27,-1,-1,-1,-1,-1,-1,-1,-1,-1,-1],"loss_changes":[1.2859747E1,1.350611E1,7.4471807E0,1.4409899E1,1.2547052E1,8.540077E-1,0E0,1.4768952E1,0E0,1.0437708E1,6.426469E0,0E0,0E0,1.4604668E1,0E0,1.025341E1,1.0724561E1,3.1511416E0,2.06921E0,0E0,0E0,0E0,0E0,0E0,0E0,0E0,0E0,0E0,0E0],"parents":[2147483647,0,0,1,1,2,2,3,3,4,4,5,5,7,7,9,9,10,10,13,13,15,15,16,16,17,17,18,18],"right_children":[2,4,6,8,10,12,-1,14,-1,16,18,-1,-1,20,-1,22,24,26,28,-1,-1,-1,-1,-1,-1,-1,-1,-1,-1],"split_conditions":[2E0,2.04E2,9E0,2.45E2,1.3E1,9.4E1,-9.418889E-2,1.52E2,1.01283364E-1,1.56E2,1.13E2,1.1128185E-1,1.726122E-2,1.8E2,1.0487125E-1,3E0,2.42E2,1.34E2,9E0,-3.3633783E-2,7.821264E-2,8.715223E-2,-5.5684377E-2,-6.517703E-2,7.689565E-2,-6.042425E-2,5.8031213E-2,-6.4341906E-3,-1.2688205E-1],"split_indices":[11457,10653,10710,9975,8034,3804,0,9996,0,8100,7803,0,0,11508,0,12090,10626,7344,5415,0,0,0,0,0,0,0,0,0,0],"split_type":[0,0,0,0,0,0,0,0,0,0,0,0,0,0,0,0,0,0,0,0,0,0,0,0,0,0,0,0,0],"sum_hessian":[3.3700906E2,3.2045883E2,1.655023E1,2.344116E2,8.604723E1,1.5182051E1,1.3681797E0,2.2556294E2,8.84865E0,6.97378E1,1.6309437E1,1.3712964E1,1.4690865E0,2.1775558E2,7.8073597E0,4.9093437E1,2.0644363E1,7.8177238E0,8.491713E0,2.0631693E2,1.1438668E1,4.4121666E1,4.971769E0,1.310066E1,7.543704E0,2.542531E0,5.275193E0,1.8921908E0,6.5995216E0],"tree_param":{"num_deleted":"0","num_feature":"12292","num_nodes":"29","size_leaf_vector":"1"}},{"base_weights":[-1.945973E-3,-3.1870046E-1,1.09634496E-1,1.56498E-2,-6.727615E-1,1.8167453E-1,-5.9071565E-1,-7.282919E-1,2.9662415E-1,-9.6295685E-1,-8.891093E-2,2.5720292E-1,-5.116198E-1,-9.7008127E-1,6.8752015E-1,-1.022745E0,4.750863E-1,3.9363736E-1,-1.00929916E-1,-1.2111385E0,-1.824657E-1,3.0534202E-1,-8.0572927E-1,1.4570722E-2,5.21831E-1,-9.413268E-1,3.240632E-1,-1.2322924E-1,7.7102005E-2,9.262315E-2,-2.2112975E-2,-4.7152326E-3,-1.2405962E-1,6.618042E-2,3.1956006E-3,-4.857094E-2,5.5262275E-2,-1.420431E-1,-2.2641202E-2,-7.3210575E-2,5.9354205E-2,-5.257502E-2,6.6707246E-2,-1.0305897E-1,6.6367523E-3,1.3352576E-2,-1.1268641E-1,5.9343826E-2,-1.246156E-1,-1.104659E-1,4.7082707E-2,-9.1438375E-2,1.1226416E-1],"categories":[],"categories_nodes":[],"categories_segments":[],"categories_sizes":[],"default_left":[0,0,0,0,0,0,0,0,0,0,0,0,0,0,0,0,0,0,0,0,0,0,0,0,0,0,0,0,0,0,0,0,0,0,0,0,0,0,0,0,0,0,0,0,0,0,0,0,0,0,0,0,0],"id":37,"left_children":[1,3,5,7,9,11,13,15,17,19,21,23,25,27,29,31,33,35,-1,37,39,41,43,45,47,49,51,-1,-1,-1,-1,-1,-1,-1,-1,-1,-1,-1,-1,-1,-1,-1,-1,-1,-1,-1,-1,-1,-1,-1,-1,-1,-1],"loss_changes":[1.1802626E1,1.0308324E1,1.2567343E1,9.772214E0,7.07654E0,1.1897265E1,1.1950565E1,5.0293894E0,4.691472E0,5.22892E0,4.523737E0,1.3044746E1,8.351786E0,9.33139E0,1.4868765E0,2.198388E0,2.4391347E-1,4.779901E0,0E0,4.0414276E0,3.8319848E0,3.5045443E0,1.1755562E0,1.4689512E1,1.3045891E1,3.9924898E0,9.287974E0,0E0,0E0,0E0,0E0,0E0,0E0,0E0,0E0,0E0,0E0,0E0,0E0,0E0,0E0,0E0,0E0,0E0,0E0,0E0,0E0,0E0,0E0,0E0,0E0,0E0,0E0],"parents":[2147483647,0,0,1,1,2,2,3,3,4,4,5,5,6,6,7,7,8,8,9,9,10,10,11,11,12,12,13,13,14,14,15,15,16,16,17,17,19,19,20,20,21,21,22,22,23,23,24,24,25,25,26,26],"right_children":[2,4,6,8,10,12,14,16,18,20,22,24,26,28,30,32,34,36,-1,38,40,42,44,46,48,50,52,-1,-1,-1,-1,-1,-1,-1,-1,-1,-1,-1,-1,-1,-1,-1,-1,-1,-1,-1,-1,-1,-1,-1,-1,-1,-1],"split_conditions":[1.04E2,1.23E2,2.26E2,9.4E1,1.25E2,1E1,1.8E2,2.1E2,2E0,1.74E2,9E0,1.23E2,1E0,1.3E1,1.9E2,9.1E1,1.18E2,7E0,-1.00929916E-1,2.51E2,1.35E2,1.04E2,2.54E2,2.52E2,2.31E2,1.22E2,1E0,-1.2322924E-1,7.7102005E-2,9.262315E-2,-2.2112975E-2,-4.7152326E-3,-1.2405962E-1,6.618042E-2,3.1956006E-3,-4.857094E-2,5.5262275E-2,-1.420431E-1,-2.2641202E-2,-7.3210575E-2,5.9354205E-2,-5.257502E-2,6.6707246E-2,-1.0305897E-1,6.6367523E-3,1.3352576E-2,-1.1268641E-1,5.9343826E-2,-1.246156E-1,-1.104659E-1,4.7082707E-2,-9.1438375E-2,1.1226416E-1],"split_indices":[5118,9711,11139,8325,9357,11898,11508,3903,9036,3960,5346,5820,11133,11910,11334,7008,4701,4497,0,9666,5478,8151,7653,7401,11511,10428,195,0,0,0,0,0,0,0,0,0,0,0,0,0,0,0,0,0,0,0,0,0,0,0,0,0,0],"split_type":[0,0,0,0,0,0,0,0,0,0,0,0,0,0,0,0,0,0,0,0,0,0,0,0,0,0,0,0,0,0,0,0,0,0,0,0,0,0,0,0,0,0,0,0,0,0,0,0,0,0,0,0,0],"sum_hessian":[3.319508E2,8.598903E1,2.4596179E2,4.471713E1,4.12719E1,2.236927E2,2.2269081E1,1.1822479E1,3.289465E1,2.7135323E1,1.4136578E1,2.0228458E2,2.1408136E1,1.7358389E1,4.910692E0,9.618938E0,2.2035406E0,3.127025E1,1.6243995E0,2.0169905E1,6.965418E0,9.490691E0,4.6458864E0,1.0607843E2,9.620615E1,1.4054775E1,7.3533616E0,1.5340355E1,2.018035E0,3.8736868E0,1.0370053E0,1.9778904E0,7.6410484E0,1.203118E0,1.0004226E0,4.4733167E0,2.6796932E1,1.6269535E1,3.9003682E0,4.1105337E0,2.8548841E0,2.740602E0,6.750089E0,3.5490627E0,1.0968238E0,9.686647E1,9.211954E0,9.309975E1,3.1063995E0,1.2792877E1,1.2618976E0,2.8259E0,4.5274615E0],"tree_param":{"num_deleted":"0","num_feature":"12292","num_nodes":"53","size_leaf_vector":"1"}},{"base_weights":[-3.7798919E-3,2.4630751E-2,-1.2330726E0,6.288698E-2,-9.49506E-1,-1.3303609E-1,-3.139702E-2,9.988035E-3,9.7529596E-1,-1.07337736E-1,2.042476E-2,5.4378908E-2,-1.1268475E0,1.03498474E-1,1.881028E-3,1.7423635E-2,-3.185464E-2,-1.2192178E-1,-1.18872E-2],"categories":[],"categories_nodes":[],"categories_segments":[],"categories_sizes":[],"default_left":[0,0,0,0,0,0,0,0,0,0,0,0,0,0,0,0,0,0,0],"id":38,"left_children":[1,3,5,7,9,-1,-1,11,13,-1,-1,15,17,-1,-1,-1,-1,-1,-1],"loss_changes":[1.1408878E1,1.1963444E1,2.4213314E-1,1.4869874E1,1.9531479E0,0E0,0E0,1.4817434E1,9.444523E-1,0E0,0E0,1.2676771E1,8.8247013E-1,0E0,0E0,0E0,0E0,0E0,0E0],"parents":[2147483647,0,0,1,1,2,2,3,3,4,4,7,7,8,8,11,11,12,12],"right_children":[2,4,6,8,10,-1,-1,12,14,-1,-1,16,18,-1,-1,-1,-1,-1,-1],"split_conditions":[3E0,2.39E2,1.63E2,1E1,2E0,-1.3303609E-1,-3.139702E-2,2.39E2,1.1E2,-1.07337736E-1,2.042476E-2,3.2E1,2.03E2,1.03498474E-1,1.881028E-3,1.7423635E-2,-3.185464E-2,-1.2192178E-1,-1.18872E-2],"split_indices":[5001,10566,5586,10737,3213,0,0,10182,5778,0,0,5535,10359,0,0,0,0,0,0],"split_type":[0,0,0,0,0,0,0,0,0,0,0,0,0,0,0,0,0,0,0],"sum_hessian":[3.2479834E2,3.184192E2,6.379142E0,3.072869E2,1.1132307E1,5.3639083E0,1.0152333E0,2.9140308E2,1.5883799E1,1.0115891E1,1.0164158E0,2.8136844E2,1.0034639E1,1.4873555E1,1.0102437E0,2.133356E2,6.803285E1,9.000288E0,1.034351E0],"tree_param":{"num_deleted":"0","num_feature":"12292","num_nodes":"19","size_leaf_vector":"1"}},{"base_weights":[-4.410829E-3,-3.965808E-2,9.855311E-2,1.7418407E-2,-1.1327455E0,5.595223E-2,-1.08077765E-1,3.6144648E-2,-1.2617675E0,2.264652E-3,9.1426516E-1,-3.51738E-2,-1.3045177E-1,5.4594786E-3,-1.0847614E-1,9.904967E-2,-1.0671145E-2],"categories":[],"categories_nodes":[],"categories_segments":[],"categories_sizes":[],"default_left":[0,0,0,0,0,0,0,0,0,0,0,0,0,0,0,0,0],"id":39,"left_children":[1,3,-1,5,7,9,-1,-1,11,13,15,-1,-1,-1,-1,-1,-1],"loss_changes":[1.1272439E1,1.9474821E1,0E0,1.2643323E1,3.4422245E0,1.3279035E1,0E0,0E0,1.0452461E-1,1.5545937E1,1.4260216E0,0E0,0E0,0E0,0E0,0E0,0E0],"parents":[2147483647,0,0,1,1,3,3,4,4,5,5,8,8,9,9,10,10],"right_children":[2,4,-1,6,8,10,-1,-1,12,14,16,-1,-1,-1,-1,-1,-1],"split_conditions":[1.2E1,1.58E2,9.855311E-2,2.48E2,4E0,1E1,-1.08077765E-1,3.6144648E-2,1.03E2,2.39E2,8E0,-3.51738E-2,-1.3045177E-1,5.4594786E-3,-1.0847614E-1,9.904967E-2,-1.0671145E-2],"split_indices":[11895,11130,0,9978,5247,10737,0,0,9303,10182,10734,0,0,0,0,0,0],"split_type":[0,0,0,0,0,0,0,0,0,0,0,0,0,0,0,0,0],"sum_hessian":[3.2093967E2,3.108323E2,1.0107361E1,2.963426E2,1.4489715E1,2.872138E2,9.12879E0,1.0085341E0,1.348118E1,2.7124973E2,1.5964065E1,1.0189248E0,1.24622555E1,2.596975E2,1.1552228E1,1.4882697E1,1.0813677E0],"tree_param":{"num_deleted":"0","num_feature":"12292","num_nodes":"17","size_leaf_vector":"1"}},{"base_weights":[-4.579863E-3,3.406077E-2,-9.16196E-1,-2.9903026E-2,1.0382771E-1,6.1687257E-2,-1.1332285E-1,3.863939E-2,-7.960284E-1,9.727654E-2,-1.0184206E0,9.303277E-2,-1.1571388E0,-7.737366E-2,1.5841378E-2,-1.1528188E-1,2.9851992E-2,-1.189084E-1,-2.8134545E-2],"categories":[],"categories_nodes":[],"categories_segments":[],"categories_sizes":[],"default_left":[0,0,0,0,0,0,0,0,0,0,0,0,0,0,0,0,0,0,0],"id":40,"left_children":[1,3,5,7,-1,-1,-1,9,11,13,15,-1,17,-1,-1,-1,-1,-1,-1],"loss_changes":[1.1222083E1,1.966972E1,5.0092926E0,1.5175395E1,0E0,0E0,0E0,1.6566282E1,1.5869779E1,1.3575085E1,2.8309183E0,0E0,2.2697067E-1,0E0,0E0,0E0,0E0,0E0,0E0],"parents":[2147483647,0,0,1,1,2,2,3,3,7,7,8,8,9,9,10,10,12,12],"right_children":[2,4,6,8,-1,-1,-1,10,12,14,16,-1,18,-1,-1,-1,-1,-1,-1],"split_conditions":[1.95E2,9.6E1,1E0,2.21E2,1.0382771E-1,6.1687257E-2,-1.1332285E-1,8E0,1E0,8E0,7E0,9.303277E-2,1.71E2,-7.737366E-2,1.5841378E-2,-1.1528188E-1,2.9851992E-2,-1.189084E-1,-2.8134545E-2],"split_indices":[10563,10935,10758,11139,0,0,0,8451,11511,9111,8439,0,7098,0,0,0,0,0,0],"split_type":[0,0,0,0,0,0,0,0,0,0,0,0,0,0,0,0,0,0,0],"sum_hessian":[3.1669318E2,3.0473886E2,1.1954316E1,2.874029E2,1.7335974E1,1.2540046E0,1.0700311E1,2.6467313E2,2.2729765E1,2.516231E2,1.3050044E1,3.6593342E0,1.907043E1,1.57388115E1,2.3588428E2,1.1954655E1,1.0953896E0,1.805417E1,1.0162601E0],"tree_param":{"num_deleted":"0","num_feature":"12292","num_nodes":"19","size_leaf_vector":"1"}},{"base_weights":[-4.897721E-3,-4.4393077E-2,8.655337E-1,-8.910817E-2,7.8604674E-1,9.948625E-1,-2.5320465E-2,-2.1899717E-1,2.2446774E-1,1.0009696E0,-8.6068824E-2,1.0611536E-1,1.4821425E-2,-4.597796E-1,4.328335E-2,3.2274583E-1,-7.750356E-1,1.0673137E-1,1.1522549E-2,6.2260773E-2,-5.3923216E-2,2.5849521E-2,-4.1471172E-2,4.5086253E-2,-5.951565E-2,-1.2518072E-1,4.7123283E-2],"categories":[],"categories_nodes":[],"categories_segments":[],"categories_sizes":[],"default_left":[0,0,0,0,0,0,0,0,0,0,0,0,0,0,0,0,0,0,0,0,0,0,0,0,0,0,0],"id":41,"left_children":[1,3,5,7,9,11,-1,13,15,17,-1,-1,-1,19,21,23,25,-1,-1,-1,-1,-1,-1,-1,-1,-1,-1],"loss_changes":[1.0768092E1,1.1191906E1,2.21902E0,1.1661608E1,6.313711E0,5.381098E-1,0E0,1.2783467E1,8.501461E0,7.049389E-1,0E0,0E0,0E0,9.404949E0,9.732067E0,9.345366E0,5.2329135E0,0E0,0E0,0E0,0E0,0E0,0E0,0E0,0E0,0E0,0E0],"parents":[2147483647,0,0,1,1,2,2,3,3,4,4,5,5,7,7,8,8,9,9,13,13,14,14,15,15,16,16],"right_children":[2,4,6,8,10,12,-1,14,16,18,-1,-1,-1,20,22,24,26,-1,-1,-1,-1,-1,-1,-1,-1,-1,-1],"split_conditions":[2.11E2,2E0,2E0,1.52E2,9E0,2.55E2,-2.5320465E-2,1.14E2,5.2E1,1.19E2,-8.6068824E-2,1.0611536E-1,1.4821425E-2,1.4E1,2E0,7E0,1.33E2,1.0673137E-1,1.1522549E-2,6.2260773E-2,-5.3923216E-2,2.5849521E-2,-4.1471172E-2,4.5086253E-2,-5.951565E-2,-1.2518072E-1,4.7123283E-2],"split_indices":[864,11457,4392,6189,10710,5241,0,3540,4062,2637,0,0,0,5682,4377,11898,8676,0,0,0,0,0,0,0,0,0,0],"split_type":[0,0,0,0,0,0,0,0,0,0,0,0,0,0,0,0,0,0,0,0,0,0,0,0,0,0,0],"sum_hessian":[3.1110855E2,2.985127E2,1.2595854E1,2.841076E2,1.4405097E1,1.1389885E1,1.2059689E0,2.0110695E2,8.300064E1,1.3088947E1,1.3161495E0,1.032787E1,1.0620139E0,1.0445798E2,9.664898E1,7.618655E1,6.8140945E0,1.1986169E1,1.1027793E0,6.6758757E0,9.7782104E1,6.6048416E1,3.0600555E1,6.730169E1,8.884857E0,4.925395E0,1.8886998E0],"tree_param":{"num_deleted":"0","num_feature":"12292","num_nodes":"27","size_leaf_vector":"1"}},{"base_weights":[-4.0358105E-3,-3.699993E-2,1.0005977E-1,2.7078066E-2,-1.1419921E-1,8.141394E-2,-7.424147E-1,2.242439E-1,-2.6129243E-1,-1.1706684E0,8.720278E-2,3.1765316E-2,-5.9945572E-2,-5.2020628E-2,3.68823E-2,-1.5795417E-2,-1.2304062E-1],"categories":[],"categories_nodes":[],"categories_segments":[],"categories_sizes":[],"default_left":[0,0,0,0,0,0,0,0,0,0,0,0,0,0,0,0,0],"id":42,"left_children":[1,3,-1,5,-1,7,9,11,13,15,-1,-1,-1,-1,-1,-1,-1],"loss_changes":[1.0247413E1,2.1236044E1,0E0,1.1936673E1,0E0,1.3089338E1,1.4041895E1,1.4689115E1,1.3043384E1,7.31966E-1,0E0,0E0,0E0,0E0,0E0,0E0,0E0],"parents":[2147483647,0,0,1,1,3,3,5,5,6,6,7,7,8,8,9,9],"right_children":[2,4,-1,6,-1,8,10,12,14,16,-1,-1,-1,-1,-1,-1,-1],"split_conditions":[2.44E2,3E0,1.0005977E-1,1.03E2,-1.1419921E-1,1.39E2,2E0,4E0,1.05E2,7.2E1,8.720278E-2,3.1765316E-2,-5.9945572E-2,-5.2020628E-2,3.68823E-2,-1.5795417E-2,-1.2304062E-1],"split_indices":[11907,11907,0,11130,0,6612,11895,10362,3318,7764,0,0,0,0,0,0,0],"split_type":[0,0,0,0,0,0,0,0,0,0,0,0,0,0,0,0,0],"sum_hessian":[3.0731403E2,2.9848334E2,8.83069E0,2.8304517E2,1.5438167E1,2.6521207E2,1.783311E1,1.8743875E2,7.777331E1,1.4311627E1,3.5214832E0,1.6889955E2,1.85392E1,5.5246853E1,2.2526453E1,1.0001721E0,1.3311455E1],"tree_param":{"num_deleted":"0","num_feature":"12292","num_nodes":"17","size_leaf_vector":"1"}},{"base_weights":[-4.200038E-3,-1.9764853E-1,1.6430348E-1,-4.951897E-1,7.854069E-2,2.6335177E-1,-6.2086946E-1,-3.3971804E-1,-1.3667611E0,2.1284735E-1,-6.7318714E-1,3.1515455E-1,-1.125495E-1,2.5729055E-2,-1.2038393E0,-4.9847478E-1,4.4863066E-1,-1.9487555E-1,-7.278945E-2,6.185729E-1,-3.2107048E-2,3.514916E-1,-1.0739834E0,3.7384936E-1,-1.01415776E-1,-4.833066E-1,7.691225E-1,-1.5115229E0,6.575938E-2,-9.61475E-2,-1.877426E-2,7.336448E-2,-3.626445E-2,8.0401845E-2,-7.546331E-2,7.2794095E-2,-8.7877125E-2,1.8469155E-2,-6.612375E-2,-2.3426548E-2,7.880042E-2,-1.3461956E-1,-2.1698382E-3,4.5829233E-2,-4.7934454E-2,-7.957992E-2,5.9174784E-2,2.1917557E-2,8.692902E-2,-3.523847E-2,-1.7321107E-1],"categories":[],"categories_nodes":[],"categories_segments":[],"categories_sizes":[],"default_left":[0,0,0,0,0,0,0,0,0,0,0,0,0,0,0,0,0,0,0,0,0,0,0,0,0,0,0,0,0,0,0,0,0,0,0,0,0,0,0,0,0,0,0,0,0,0,0,0,0,0,0],"id":43,"left_children":[1,3,5,7,9,11,13,15,17,19,21,23,-1,25,27,29,31,-1,33,35,37,39,41,43,-1,45,47,49,-1,-1,-1,-1,-1,-1,-1,-1,-1,-1,-1,-1,-1,-1,-1,-1,-1,-1,-1,-1,-1,-1,-1],"loss_changes":[9.931489E0,1.1694145E1,1.2828444E1,8.80592E0,7.656604E0,1.0809272E1,7.019585E0,7.6562862E0,7.408125E0,6.3701887E0,5.10883E0,1.1370132E1,0E0,4.068587E0,6.5899343E0,6.999461E0,2.6895185E0,0E0,3.0872328E0,4.586978E0,5.686052E0,1.2054739E0,2.4135647E0,9.992102E0,0E0,2.625279E0,4.9461365E-2,1.6110458E0,0E0,0E0,0E0,0E0,0E0,0E0,0E0,0E0,0E0,0E0,0E0,0E0,0E0,0E0,0E0,0E0,0E0,0E0,0E0,0E0,0E0,0E0,0E0],"parents":[2147483647,0,0,1,1,2,2,3,3,4,4,5,5,6,6,7,7,8,8,9,9,10,10,11,11,13,13,14,14,15,15,16,16,18,18,19,19,20,20,21,21,22,22,23,23,25,25,26,26,27,27],"right_children":[2,4,6,8,10,12,14,16,18,20,22,24,-1,26,28,30,32,-1,34,36,38,40,42,44,-1,46,48,50,-1,-1,-1,-1,-1,-1,-1,-1,-1,-1,-1,-1,-1,-1,-1,-1,-1,-1,-1,-1,-1,-1,-1],"split_conditions":[1.08E2,1.21E2,2.5E2,2E0,1.4E1,1.8E2,8E0,2.52E2,1.7E1,3.7E1,1.12E2,9.8E1,-1.125495E-1,1.23E2,1.5E2,1E0,8.5E1,-1.9487555E-1,1E0,2.46E2,1.75E2,1.8E2,1.25E2,2.26E2,-1.01415776E-1,1.9E2,9.2E1,1E0,6.575938E-2,-9.61475E-2,-1.877426E-2,7.336448E-2,-3.626445E-2,8.0401845E-2,-7.546331E-2,7.2794095E-2,-8.7877125E-2,1.8469155E-2,-6.612375E-2,-2.3426548E-2,7.880042E-2,-1.3461956E-1,-2.1698382E-3,4.5829233E-2,-4.7934454E-2,-7.957992E-2,5.9174784E-2,2.1917557E-2,8.692902E-2,-3.523847E-2,-1.7321107E-1],"split_indices":[3156,5121,6621,12090,8223,11511,5526,10260,12090,4134,4347,11112,0,2610,9930,11700,7905,0,12099,11682,2985,4557,7008,11139,0,4458,2031,1851,0,0,0,0,0,0,0,0,0,0,0,0,0,0,0,0,0,0,0,0,0,0,0],"split_type":[0,0,0,0,0,0,0,0,0,0,0,0,0,0,0,0,0,0,0,0,0,0,0,0,0,0,0,0,0,0,0,0,0,0,0,0,0,0,0,0,0,0,0,0,0,0,0,0,0,0,0],"sum_hessian":[3.0268103E2,1.4082993E2,1.618511E2,6.741268E1,7.341724E1,1.443111E2,1.7540016E1,5.8387287E1,9.025398E0,6.289672E1,1.052052E1,1.3986725E2,4.4438443E0,8.769372E0,8.770645E0,4.8906292E1,9.480994E0,5.876345E0,3.1490524E0,2.3103848E1,3.9792873E1,2.9926095E0,7.52791E0,1.3464104E2,5.226212E0,5.4128256E0,3.3565462E0,7.6878667E0,1.0827787E0,1.8799803E1,3.0106491E1,7.0869303E0,2.3940642E0,1.2991914E0,1.8498611E0,2.201005E1,1.0937988E0,3.0119957E1,9.672915E0,1.4756955E0,1.5169141E0,5.7588625E0,1.7690479E0,1.2293652E2,1.1704513E1,4.395049E0,1.0177765E0,1.0083774E0,2.3481686E0,1.6444001E0,6.0434666E0],"tree_param":{"num_deleted":"0","num_feature":"12292","num_nodes":"51","size_leaf_vector":"1"}},{"base_weights":[-6.119684E-3,2.4972036E-2,-1.0656657E0,-1.5634233E-2,1.0341008E-1,3.6291733E-2,-1.4360608E-1,2.36241E-2,-1.0441973E-1,-2.5361463E-2,9.3031627E-1,-7.104522E-3,9.005261E-2,9.969923E-2,3.40889E-3],"categories":[],"categories_nodes":[],"categories_segments":[],"categories_sizes":[],"default_left":[0,0,0,0,0,0,0,0,0,0,0,0,0,0,0],"id":44,"left_children":[1,3,5,7,-1,-1,-1,9,-1,11,13,-1,-1,-1,-1],"loss_changes":[9.868277E0,1.1948976E1,5.0397825E0,1.1368461E1,0E0,0E0,0E0,1.2085677E1,0E0,1.1003555E1,7.994375E-1,0E0,0E0,0E0,0E0],"parents":[2147483647,0,0,1,1,2,2,3,3,7,7,9,9,10,10],"right_children":[2,4,6,8,-1,-1,-1,10,-1,12,14,-1,-1,-1,-1],"split_conditions":[5.6E1,2E0,9E1,2.39E2,1.0341008E-1,3.6291733E-2,-1.4360608E-1,1E1,-1.0441973E-1,1.8E2,3.7E1,-7.104522E-3,9.005261E-2,9.969923E-2,3.40889E-3],"split_indices":[12042,10728,5898,10566,0,0,0,10737,0,11508,4443,0,0,0,0],"split_type":[0,0,0,0,0,0,0,0,0,0,0,0,0,0,0],"sum_hessian":[2.9774734E2,2.902078E2,7.539536E0,2.7992828E2,1.02795105E1,1.556486E0,5.98305E0,2.7057788E2,9.35042E0,2.5763095E2,1.2946916E1,2.4639688E2,1.1234077E1,1.1945762E1,1.0011538E0],"tree_param":{"num_deleted":"0","num_feature":"12292","num_nodes":"15","size_leaf_vector":"1"}},{"base_weights":[-5.081915E-3,-3.8289927E-2,9.717416E-2,-6.5310847E-4,-9.56613E-1,-5.1639434E-2,9.978152E-2,-1.13778256E-1,4.3863047E-2,1.265333E-3,-9.939285E-1,-4.4294135E-3,1.0206149E-1,-1.11409895E-1,2.0470286E-2],"categories":[],"categories_nodes":[],"categories_segments":[],"categories_sizes":[],"default_left":[0,0,0,0,0,0,0,0,0,0,0,0,0,0,0],"id":45,"left_children":[1,3,-1,5,7,9,-1,-1,-1,11,13,-1,-1,-1,-1],"loss_changes":[9.624502E0,9.911939E0,0E0,1.4128068E1,3.3531036E0,1.3163332E1,0E0,0E0,0E0,1.170136E1,2.249938E0,0E0,0E0,0E0,0E0],"parents":[2147483647,0,0,1,1,3,3,4,4,5,5,9,9,10,10],"right_children":[2,4,-1,6,8,10,-1,-1,-1,12,14,-1,-1,-1,-1],"split_conditions":[2.01E2,3.6E1,9.717416E-2,2E0,2.43E2,2E0,9.978152E-2,-1.13778256E-1,4.3863047E-2,1.6E1,4E0,-4.4294135E-3,1.0206149E-1,-1.11409895E-1,2.0470286E-2],"split_indices":[1968,11112,0,10356,11940,10932,0,0,0,9969,11874,0,0,0,0],"split_type":[0,0,0,0,0,0,0,0,0,0,0,0,0,0,0],"sum_hessian":[2.9455417E2,2.8579898E2,8.755197E0,2.7550818E2,1.0290795E1,2.6302518E2,1.248298E1,9.271444E0,1.0193512E0,2.4998827E2,1.3036921E1,2.4020877E2,9.779499E0,1.1913082E1,1.1238384E0],"tree_param":{"num_deleted":"0","num_feature":"12292","num_nodes":"15","size_leaf_vector":"1"}},{"base_weights":[-4.055783E-3,2.446168E-2,-1.1346499E-1,-1.7303018E-2,8.6773455E-1,1.5400656E-1,-2.3628314E-1,1.0192219E-1,-4.7849897E-2,2.431523E-1,-6.682372E-1,-1.2838286E-1,-1.1995193E0,3.817494E-2,-3.7953474E-2,6.8987064E-2,-8.92965E-2,-1.0647821E-1,-1.4434558E-3,-1.4639299E-1,5.840054E-2],"categories":[],"categories_nodes":[],"categories_segments":[],"categories_sizes":[],"default_left":[0,0,0,0,0,0,0,0,0,0,0,0,0,0,0,0,0,0,0,0,0],"id":46,"left_children":[1,3,-1,5,7,9,11,-1,-1,13,15,17,19,-1,-1,-1,-1,-1,-1,-1,-1],"loss_changes":[9.435773E0,1.0073452E1,0E0,1.0281292E1,3.2401953E0,1.1438425E1,1.2345676E1,0E0,0E0,1.2185827E1,5.28985E0,1.1643971E1,6.5116158E0,0E0,0E0,0E0,0E0,0E0,0E0,0E0,0E0],"parents":[2147483647,0,0,1,1,3,3,4,4,5,5,6,6,9,9,10,10,11,11,12,12],"right_children":[2,4,-1,6,8,10,12,-1,-1,14,16,18,20,-1,-1,-1,-1,-1,-1,-1,-1],"split_conditions":[9E0,2E0,-1.1346499E-1,1.35E2,1.31E2,2E0,1E0,1.0192219E-1,-4.7849897E-2,6.9E1,1E0,4.7E1,2E0,3.817494E-2,-3.7953474E-2,6.8987064E-2,-8.92965E-2,-1.0647821E-1,-1.4434558E-3,-1.4639299E-1,5.840054E-2],"split_indices":[10143,11457,0,9708,3612,10758,12282,0,0,11892,12072,6654,11079,0,0,0,0,0,0,0,0],"split_type":[0,0,0,0,0,0,0,0,0,0,0,0,0,0,0,0,0,0,0,0,0],"sum_hessian":[2.9079678E2,2.8459665E2,6.20014E0,2.7209988E2,1.2496784E1,1.5283374E2,1.1926612E2,1.1451134E1,1.0456505E0,1.3852002E2,1.4313733E1,1.0827104E2,1.0995079E1,1.13617966E2,2.4902044E1,1.7383677E0,1.2575365E1,1.0840669E1,9.7430374E1,9.731552E0,1.2635268E0],"tree_param":{"num_deleted":"0","num_feature":"12292","num_nodes":"21","size_leaf_vector":"1"}},{"base_weights":[-4.691148E-3,2.7259937E-2,-9.5419014E-1,-1.3994393E-1,2.2612059E-1,8.611805E-3,-1.09756924E-1,-3.878932E-2,-8.2643354E-1,2.762089E-1,-8.7600267E-1,-8.67405E-1,4.505424E-2,-9.7628534E-1,3.4585852E-2,3.2613924E-1,-9.129115E-1,-1.0851579E-1,3.5210238E-3,-1.1588637E-1,5.3226482E-2,9.291016E-2,-2.0906643E-3,-1.0870006E-1,3.0610356E-2,-5.5069055E-2,3.869733E-2,-1.052074E-1,-1.6422441E-2],"categories":[],"categories_nodes":[],"categories_segments":[],"categories_sizes":[],"default_left":[0,0,0,0,0,0,0,0,0,0,0,0,0,0,0,0,0,0,0,0,0,0,0,0,0,0,0,0,0],"id":47,"left_children":[1,3,5,7,9,-1,-1,11,13,15,17,19,21,23,-1,25,27,-1,-1,-1,-1,-1,-1,-1,-1,-1,-1,-1,-1],"loss_changes":[8.759963E0,9.324847E0,1.4966259E0,1.0554247E1,7.31041E0,0E0,0E0,9.343036E0,3.7683687E0,7.6147385E0,1.1447368E0,5.6569624E0,7.1664934E0,2.8283825E0,0E0,6.5611343E0,3.720646E-1,0E0,0E0,0E0,0E0,0E0,0E0,0E0,0E0,0E0,0E0,0E0,0E0],"parents":[2147483647,0,0,1,1,2,2,3,3,4,4,7,7,8,8,9,9,10,10,11,11,12,12,13,13,15,15,16,16],"right_children":[2,4,6,8,10,-1,-1,12,14,16,18,20,22,24,-1,26,28,-1,-1,-1,-1,-1,-1,-1,-1,-1,-1,-1,-1],"split_conditions":[2.32E2,1.14E2,7E0,1.5E1,3E0,8.611805E-3,-1.09756924E-1,6.6E1,2.54E2,1.71E2,1.34E2,1.6E1,1.4E1,3E0,3.4585852E-2,1E0,1.32E2,-1.0851579E-1,3.5210238E-3,-1.1588637E-1,5.3226482E-2,9.291016E-2,-2.0906643E-3,-1.0870006E-1,3.0610356E-2,-5.5069055E-2,3.869733E-2,-1.052074E-1,-1.6422441E-2],"split_indices":[8451,2769,7347,4575,7278,0,0,8544,2559,11511,3333,1452,5682,4824,0,2805,4689,0,0,0,0,0,0,0,0,0,0,0,0],"split_type":[0,0,0,0,0,0,0,0,0,0,0,0,0,0,0,0,0,0,0,0,0,0,0,0,0,0,0,0,0],"sum_hessian":[2.868927E2,2.7849258E2,8.400115E0,1.5144907E2,1.270435E2,1.0658745E0,7.334241E0,1.3291978E2,1.8529295E1,1.2223754E2,4.8059587E0,1.1354924E1,1.2156486E2,1.6577435E1,1.9518614E0,1.18008194E2,4.22935E0,3.753504E0,1.0524545E0,9.540346E0,1.8145785E0,7.531918E0,1.14032936E2,1.5400215E1,1.1772186E0,7.133753E0,1.10874435E2,3.2247274E0,1.0046226E0],"tree_param":{"num_deleted":"0","num_feature":"12292","num_nodes":"29","size_leaf_vector":"1"}},{"base_weights":[-5.6811837E-3,2.4261033E-2,-1.0166464E-1,-2.4990704E-2,7.390069E-1,7.1793688E-3,-1.0190071E-1,1.0664642E-1,-8.81505E-2,-4.619186E-2,8.794559E-1,9.799007E-5,-1.11608684E-1,1.0093647E-1,-4.4549227E-2],"categories":[],"categories_nodes":[],"categories_segments":[],"categories_sizes":[],"default_left":[0,0,0,0,0,0,0,0,0,0,0,0,0,0,0],"id":48,"left_children":[1,3,-1,5,7,9,-1,-1,-1,11,13,-1,-1,-1,-1],"loss_changes":[8.637947E0,9.781349E0,0E0,8.335037E0,1.0444723E1,1.1830669E1,0E0,0E0,0E0,1.2093458E1,2.9716024E0,0E0,0E0,0E0,0E0],"parents":[2147483647,0,0,1,1,3,3,4,4,5,5,9,9,10,10],"right_children":[2,4,-1,6,8,10,-1,-1,-1,12,14,-1,-1,-1,-1],"split_conditions":[2.17E2,1E0,-1.0166464E-1,1.87E2,1.6E1,2E0,-1.0190071E-1,1.0664642E-1,-8.81505E-2,2E0,1.5E1,9.799007E-5,-1.11608684E-1,1.0093647E-1,-4.4549227E-2],"split_indices":[11334,10365,0,11745,10563,10572,0,0,0,11937,4053,0,0,0,0],"split_type":[0,0,0,0,0,0,0,0,0,0,0,0,0,0,0],"sum_hessian":[2.8354343E2,2.7633508E2,7.20834E0,2.5942374E2,1.6911346E1,2.5225269E2,7.1710587E0,1.4352941E1,2.5584059E0,2.3860068E2,1.3652008E1,2.2948189E2,9.118793E0,1.2649895E1,1.0021137E0],"tree_param":{"num_deleted":"0","num_feature":"12292","num_nodes":"15","size_leaf_vector":"1"}},{"base_weights":[-5.9102513E-3,-3.7287116E-2,9.386963E-2,9.086738E-3,-9.9725527E-1,4.1990705E-2,-1.00200295E-1,-1.16243556E-1,1.2830186E-2,-1.2486453E-1,2.7493685E-1,-2.0952513E-2,8.344704E-2,5.1388677E-2,-3.0632233E-2],"categories":[],"categories_nodes":[],"categories_segments":[],"categories_sizes":[],"default_left":[0,0,0,0,0,0,0,0,0,0,0,0,0,0,0],"id":49,"left_children":[1,3,-1,5,7,9,-1,-1,-1,11,13,-1,-1,-1,-1],"loss_changes":[8.358678E0,1.2152098E1,0E0,8.7316265E0,2.4877777E0,9.903742E0,0E0,0E0,0E0,1.2246664E1,1.4919448E1,0E0,0E0,0E0,0E0],"parents":[2147483647,0,0,1,1,3,3,4,4,5,5,9,9,10,10],"right_children":[2,4,-1,6,8,10,-1,-1,-1,12,14,-1,-1,-1,-1],"split_conditions":[1.2E1,1.58E2,9.386963E-2,2.48E2,2E0,1.26E2,-1.00200295E-1,-1.16243556E-1,1.2830186E-2,7E0,8E0,-2.0952513E-2,8.344704E-2,5.1388677E-2,-3.0632233E-2],"split_indices":[11895,11130,0,9978,3417,10110,0,0,0,11127,3609,0,0,0,0],"split_type":[0,0,0,0,0,0,0,0,0,0,0,0,0,0,0],"sum_hessian":[2.7983725E2,2.7177042E2,8.066834E0,2.601917E2,1.1578728E1,2.529194E2,7.272305E0,1.0068385E1,1.5103432E0,1.4763501E2,1.05284386E2,1.3638107E2,1.1253937E1,7.469424E1,3.0590153E1],"tree_param":{"num_deleted":"0","num_feature":"12292","num_nodes":"15","size_leaf_vector":"1"}},{"base_weights":[-5.3771595E-3,-3.5465177E-2,9.503951E-2,2.6433548E-2,-1.1083706E-1,-2.8731272E-1,1.4016312E-1,3.9084397E-2,-6.523061E-1,1.9852209E-1,-6.267366E-1,-7.617166E-2,3.160627E-2,-9.726551E-2,-1.7092165E-2,2.4347646E-2,-8.7913565E-2,-1.05003916E-1,7.939312E-2],"categories":[],"categories_nodes":[],"categories_segments":[],"categories_sizes":[],"default_left":[0,0,0,0,0,0,0,0,0,0,0,0,0,0,0,0,0,0,0],"id":50,"left_children":[1,3,-1,5,-1,7,9,11,13,15,17,-1,-1,-1,-1,-1,-1,-1,-1],"loss_changes":[8.005437E0,1.794121E1,0E0,9.174071E0,0E0,8.177767E0,8.56289E0,8.462723E0,4.8242636E0,8.739103E0,8.996552E0,0E0,0E0,0E0,0E0,0E0,0E0,0E0,0E0],"parents":[2147483647,0,0,1,1,3,3,5,5,6,6,7,7,8,8,9,9,10,10],"right_children":[2,4,-1,6,-1,8,10,12,14,16,18,-1,-1,-1,-1,-1,-1,-1,-1],"split_conditions":[2.44E2,3E0,9.503951E-2,1.04E2,-1.1083706E-1,1.25E2,1.03E2,9E1,1.12E2,5E0,2E0,-7.617166E-2,3.160627E-2,-9.726551E-2,-1.7092165E-2,2.4347646E-2,-8.7913565E-2,-1.05003916E-1,7.939312E-2],"split_indices":[11907,11907,0,5118,0,9714,11130,8325,3159,11952,11895,0,0,0,0,0,0,0,0],"split_type":[0,0,0,0,0,0,0,0,0,0,0,0,0,0,0,0,0,0,0],"sum_hessian":[2.762073E2,2.687111E2,7.4962173E0,2.549762E2,1.3734882E1,6.743013E1,1.8754607E2,3.6068558E1,3.1361568E1,1.7497229E2,1.2573776E1,8.819495E0,2.7249063E1,1.8217651E1,1.3143918E1,1.687087E2,6.263597E0,9.8883295E0,2.6854463E0],"tree_param":{"num_deleted":"0","num_feature":"12292","num_nodes":"19","size_leaf_vector":"1"}},{"base_weights":[-6.098637E-3,2.8342953E-2,-8.601825E-1,-3.014141E-2,1.00912824E-1,-1.0591666E-1,5.103146E-2,1.0898258E-2,-1.0864549E-1,5.9771355E-2,-9.523349E-1,1.50471125E-2,-4.3684706E-2,1.255683E-2,-1.0653879E-1],"categories":[],"categories_nodes":[],"categories_segments":[],"categories_sizes":[],"default_left":[0,0,0,0,0,0,0,0,0,0,0,0,0,0,0],"id":51,"left_children":[1,3,5,7,-1,-1,-1,9,-1,11,13,-1,-1,-1,-1],"loss_changes":[8.055563E0,1.5139538E1,3.4352694E0,1.083019E1,0E0,0E0,0E0,1.1412214E1,0E0,1.0448373E1,1.5603666E0,0E0,0E0,0E0,0E0],"parents":[2147483647,0,0,1,1,2,2,3,3,7,7,9,9,10,10],"right_children":[2,4,6,8,-1,-1,-1,10,-1,12,14,-1,-1,-1,-1],"split_conditions":[1.95E2,9.6E1,4.4E1,6.2E1,1.00912824E-1,-1.0591666E-1,5.103146E-2,8E0,-1.0864549E-1,1.92E2,3E0,1.50471125E-2,-4.3684706E-2,1.255683E-2,-1.0653879E-1],"split_indices":[10563,10935,11142,10947,0,0,0,8451,0,6621,7155,0,0,0,0],"split_type":[0,0,0,0,0,0,0,0,0,0,0,0,0,0,0],"sum_hessian":[2.7202084E2,2.6240594E2,9.614906E0,2.485539E2,1.38520355E1,8.594261E0,1.0206447E0,2.4021095E2,8.342942E0,2.2950418E2,1.0706773E1,1.9465112E2,3.485305E1,1.0058447E0,9.700929E0],"tree_param":{"num_deleted":"0","num_feature":"12292","num_nodes":"15","size_leaf_vector":"1"}},{"base_weights":[-6.3722283E-3,-4.0670734E-2,8.1646216E-1,-1.1869085E-2,-1.1249143E0,9.3190444E-1,-1.5851228E-2,2.5129372E-2,-9.177205E-1,9.850452E-3,-1.3979267E-1,9.999567E-2,1.7945865E-2,-1.7626517E-2,9.64133E-2,-1.0873683E-1,2.8113425E-2,3.264466E-3,-9.50698E-2],"categories":[],"categories_nodes":[],"categories_segments":[],"categories_sizes":[],"default_left":[0,0,0,0,0,0,0,0,0,0,0,0,0,0,0,0,0,0,0],"id":52,"left_children":[1,3,5,7,9,11,-1,13,15,-1,-1,-1,-1,17,-1,-1,-1,-1,-1],"loss_changes":[7.636358E0,8.092732E0,1.3664227E0,8.531581E0,2.377654E0,3.2374E-1,0E0,9.848515E0,2.3372555E0,0E0,0E0,0E0,0E0,1.1063453E1,0E0,0E0,0E0,0E0,0E0],"parents":[2147483647,0,0,1,1,2,2,3,3,4,4,5,5,7,7,8,8,13,13],"right_children":[2,4,6,8,10,12,-1,14,16,-1,-1,-1,-1,18,-1,-1,-1,-1,-1],"split_conditions":[2.11E2,1.09E2,2E0,8.4E1,3.4E1,2.54E2,-1.5851228E-2,2E0,2E0,9.850452E-3,-1.3979267E-1,9.999567E-2,1.7945865E-2,2E0,9.64133E-2,-1.0873683E-1,2.8113425E-2,3.264466E-3,-9.50698E-2],"split_indices":[864,465,4005,11112,5328,5241,0,10356,477,0,0,0,0,10932,0,0,0,0,0],"split_type":[0,0,0,0,0,0,0,0,0,0,0,0,0,0,0,0,0,0,0],"sum_hessian":[2.6840524E2,2.5857745E2,9.827805E0,2.5287117E2,5.7062764E0,8.826836E0,1.0009693E0,2.4388232E2,8.988833E0,1.1576822E0,4.5485945E0,7.7930756E0,1.0337597E0,2.3419968E2,9.682645E0,7.95599E0,1.032844E0,2.2314244E2,1.105725E1],"tree_param":{"num_deleted":"0","num_feature":"12292","num_nodes":"19","size_leaf_vector":"1"}},{"base_weights":[-6.187949E-3,-4.3260295E-2,7.4659973E-1,3.760044E-2,-4.4485116E-1,9.4321537E-1,-7.167962E-2,-6.288384E-2,4.623206E-1,-5.916232E-1,8.415446E-2,1.01706505E-1,1.2741918E-2,9.4085366E-2,-4.001086E-1,5.6248295E-1,-9.18085E-2,-9.7625285E-1,5.8477215E-2,1.6354075E-2,-8.9451864E-2,-5.0338157E-2,1.0265175E-1,6.7040436E-2,-8.228918E-2,-1.1094059E-1,2.2364842E-2,1.0392924E-1,-5.7841446E-2],"categories":[],"categories_nodes":[],"categories_segments":[],"categories_sizes":[],"default_left":[0,0,0,0,0,0,0,0,0,0,0,0,0,0,0,0,0,0,0,0,0,0,0,0,0,0,0,0,0],"id":53,"left_children":[1,3,5,7,9,11,-1,13,15,17,-1,-1,-1,19,21,23,-1,25,27,-1,-1,-1,-1,-1,-1,-1,-1,-1,-1],"loss_changes":[7.472193E0,8.298071E0,4.2920294E0,9.128053E0,8.582734E0,5.6387615E-1,0E0,9.210653E0,6.1728773E0,9.814617E0,0E0,0E0,0E0,8.321362E0,8.654237E0,6.3471727E0,0E0,4.174265E0,1.0251698E1,0E0,0E0,0E0,0E0,0E0,0E0,0E0,0E0,0E0,0E0],"parents":[2147483647,0,0,1,1,2,2,3,3,4,4,5,5,7,7,8,8,9,9,13,13,14,14,15,15,17,17,18,18],"right_children":[2,4,6,8,10,12,-1,14,16,18,-1,-1,-1,20,22,24,-1,26,28,-1,-1,-1,-1,-1,-1,-1,-1,-1,-1],"split_conditions":[2E0,2.6E1,9E0,1.34E2,3E0,9.4E1,-7.167962E-2,1.39E2,1.7E2,1.96E2,8.415446E-2,1.01706505E-1,1.2741918E-2,6.1E1,2E0,3.3E1,-9.18085E-2,2E0,6E1,1.6354075E-2,-8.9451864E-2,-5.0338157E-2,1.0265175E-1,6.7040436E-2,-8.228918E-2,-1.1094059E-1,2.2364842E-2,1.0392924E-1,-5.7841446E-2],"split_indices":[11457,5922,10710,1452,11523,3804,0,6612,3996,10638,0,0,0,11145,11265,11511,0,9210,7329,0,0,0,0,0,0,0,0,0,0],"split_type":[0,0,0,0,0,0,0,0,0,0,0,0,0,0,0,0,0,0,0,0,0,0,0,0,0,0,0,0,0],"sum_hessian":[2.6559024E2,2.5402296E2,1.1567272E1,2.1220221E2,4.1820763E1,1.0510577E1,1.0566949E0,1.7229175E2,3.9910458E1,3.802264E1,3.7981222E0,9.411858E0,1.0987196E0,1.1805928E2,5.423247E1,3.77629E1,2.1475558E0,2.3573668E1,1.4448972E1,1.1108917E2,6.9701104E0,5.117508E1,3.0573936E0,3.5512543E1,2.2503612E0,2.128688E1,2.286786E0,5.439817E0,9.009155E0],"tree_param":{"num_deleted":"0","num_feature":"12292","num_nodes":"29","size_leaf_vector":"1"}},{"base_weights":[-5.746736E-3,3.6822084E-2,-6.4359975E-1,-2.8126633E-2,1.0377699E0,-1.0816394E0,5.370612E-1,1.6206164E-2,-1.0260311E0,1.12702884E-1,1.2596686E-2,-1.8684266E-2,-1.1476518E-1,9.279514E-2,-2.5151445E-2,7.467264E-2,-7.835126E-1,-1.2302716E-1,-2.5431696E-1,1.2404424E-2,-1.0074653E-1,-1.088799E-1,7.601913E-2,-5.9470546E-2,2.5972396E-2],"categories":[],"categories_nodes":[],"categories_segments":[],"categories_sizes":[],"default_left":[0,0,0,0,0,0,0,0,0,0,0,0,0,0,0,0,0,0,0,0,0,0,0,0,0],"id":54,"left_children":[1,3,5,7,9,11,13,15,17,-1,-1,-1,-1,-1,-1,19,21,-1,23,-1,-1,-1,-1,-1,-1],"loss_changes":[7.1372213E0,1.6056707E1,9.085548E0,1.0301938E1,1.0828018E0,5.136461E-1,1.8110783E0,1.0512596E1,1.2482624E0,0E0,0E0,0E0,0E0,0E0,0E0,1.1305361E1,8.047293E0,0E0,7.377122E-1,0E0,0E0,0E0,0E0,0E0,0E0],"parents":[2147483647,0,0,1,1,2,2,3,3,4,4,5,5,6,6,7,7,8,8,15,15,16,16,18,18],"right_children":[2,4,6,8,10,12,14,16,18,-1,-1,-1,-1,-1,-1,20,22,-1,24,-1,-1,-1,-1,-1,-1],"split_conditions":[2.47E2,3.7E1,1.19E2,5E0,2.07E2,1E0,2.7E1,3E0,1.1E2,1.12702884E-1,1.2596686E-2,-1.8684266E-2,-1.1476518E-1,9.279514E-2,-2.5151445E-2,2.09E2,2.49E2,-1.2302716E-1,1.3E2,1.2404424E-2,-1.0074653E-1,-1.088799E-1,7.601913E-2,-5.9470546E-2,2.5972396E-2],"split_indices":[11916,11514,5328,7278,3894,11727,5802,11907,2949,0,0,0,0,0,0,11130,11907,0,8523,0,0,0,0,0,0],"split_type":[0,0,0,0,0,0,0,0,0,0,0,0,0,0,0,0,0,0,0,0,0,0,0,0,0],"sum_hessian":[2.609826E2,2.4553824E2,1.5444376E1,2.3148944E2,1.4048805E1,1.1326118E1,4.1182585E0,2.2258467E2,8.904762E0,1.2581157E1,1.4676485E0,1.0413296E0,1.0284788E1,2.6352458E0,1.4830124E0,2.0826527E2,1.4319397E1,6.571386E0,2.3333764E0,2.0002469E2,8.2405815E0,1.2201154E1,2.1182437E0,1.3093959E0,1.0239805E0],"tree_param":{"num_deleted":"0","num_feature":"12292","num_nodes":"25","size_leaf_vector":"1"}},{"base_weights":[-6.3942783E-3,2.1674283E-2,-9.7023286E-2,-2.2238025E-2,8.567367E-1,1.8818505E-2,-1.0671574E0,9.81917E-2,-2.9470894E-2,5.1888354E-2,-1.1755868E-1,-1.23769715E-1,1.5288039E-2,1.4076651E-3,9.857254E-2],"categories":[],"categories_nodes":[],"categories_segments":[],"categories_sizes":[],"default_left":[0,0,0,0,0,0,0,0,0,0,0,0,0,0,0],"id":55,"left_children":[1,3,-1,5,7,9,11,-1,-1,13,-1,-1,-1,-1,-1],"loss_changes":[6.9896326E0,9.23317E0,0E0,1.0303221E1,2.1024408E0,9.2095785E0,2.0783033E0,0E0,0E0,7.9779806E0,0E0,0E0,0E0,0E0,0E0],"parents":[2147483647,0,0,1,1,3,3,4,4,5,5,6,6,9,9],"right_children":[2,4,-1,6,8,10,12,-1,-1,14,-1,-1,-1,-1,-1],"split_conditions":[1.87E2,2E0,-9.7023286E-2,2E0,4E0,2E0,6.3E1,9.81917E-2,-2.9470894E-2,1E1,-1.1755868E-1,-1.23769715E-1,1.5288039E-2,1.4076651E-3,9.857254E-2],"split_indices":[11745,10572,0,11937,4590,7884,11544,0,0,9996,0,0,0,0,0],"split_type":[0,0,0,0,0,0,0,0,0,0,0,0,0,0,0],"sum_hessian":[2.5658545E2,2.5027455E2,6.310893E0,2.3869594E2,1.1578613E1,2.3061662E2,8.079301E0,1.0576059E1,1.0025536E0,2.2533429E2,5.282339E0,7.0757604E0,1.0035406E0,